tree
version=v4
num_class=1
num_tree_per_iteration=1
label_index=0
max_feature_idx=149
objective=binary sigmoid:1
feature_names=P7_rol_mean_10 M4_rol_mean_5 M4_rol_mean_10 P13_rol_mean_10 E19_rol_mean_5 E19_rol_mean_10 V3_rol_mean_5 P3_rol_mean_5 P7_rol_mean_5 P3_rol_std_5 P3_rol_mean_10 P12_rol_mean_10 P12_rol_mean_5 V3_rol_mean_10 P13_rol_mean_5 M15_rol_mean_5 P3_rol_std_10 P4_rol_mean_10 P13_rol_std_10 P4_rol_mean_5 P4_rol_std_5 S2_rol_mean_10 M15_rol_mean_10 V13 S2_rol_mean_5 P13_rol_std_5 V3_rol_std_10 M17 S5_rol_mean_5 E19_rol_std_5 S2_rol_std_10 P4_rol_std_10 V3_rol_std_5 M15_rol_std_5 M3 E19_rol_std_10 M4_rol_std_10 P12_rol_std_10 M4_rol_std_5 E19_diff1 V13_diff5 S5_diff5 S6_rol_std_10 P4 S5 P3_diff1 S2_rol_std_5 S5_rol_mean_10 V13_diff3 E19 P7_rol_std_5 E19_diff5 P3 P12_rol_std_5 P13 D8 M11 M15_rol_std_10 P7_rol_std_10 M12 P3_diff3 V3_diff3 E1 D5 M4_diff5 V3_diff1 M4 V7 E9 S6 M3_rol_mean_10 V13_rol_std_5 V6 P6_rol_mean_5 V13_rol_mean_10 M12_rol_std_5 M2 P6_rol_mean_10 M3_rol_mean_5 M9_rol_std_5 weather_hmm_p0 weather_hmm_p1 weather_hmm_p2 weather_hmm_p3 weather_hmm_margin weather_hmm_entropy AE_z0 AE_z1 AE_z2 AE_z3 AE_z4 AE_z5 AE_z6 AE_z7 AE_z8 AE_z9 AE_z10 AE_z11 AE_z12 AE_z13 AE_z14 AE_z15 AE_z16 AE_z17 AE_z18 AE_z19 AE_z20 AE_z21 AE_z22 AE_z23 AE_z24 AE_z25 AE_z26 AE_z27 AE_z28 AE_z29 AE_z30 AE_z31 AE_z32 AE_z33 AE_z34 AE_z35 AE_z36 AE_z37 AE_z38 AE_z39 AE_z40 AE_z41 AE_z42 AE_z43 AE_z44 AE_z45 AE_z46 AE_z47 AE_z48 AE_z49 AE_z50 AE_z51 AE_z52 AE_z53 AE_z54 AE_z55 AE_z56 AE_z57 AE_z58 AE_z59 AE_z60 AE_z61 AE_z62 AE_z63
feature_infos=[-3.0477254390716553:3.8737270832061768] [-6:4.8927998542785645] [-6:4.9367060661315918] [-2.1908824443817139:1.9217092990875244] [-1.1980409622192383:6] [-1.1058094501495361:6] [-1.8227128982543945:1.7432057857513428] [-2.9475288391113281:3.3917241096496582] [-3.5301620960235596:4.251579761505127] [-3.498720645904541:2.8303084373474121] [-2.9433228969573975:4.1566743850708008] [-1.2217713594436646:6] [-1.1323425769805908:6] [-1.8476248979568481:1.7994496822357178] [-2.0802180767059326:1.8471032381057739] [-1.8715286254882812:1.9147776365280151] [-4.009488582611084:3.3298473358154297] [-3.4746520519256592:3.2984414100646973] [-1.7421879768371582:3.2185428142547607] [-2.7981212139129639:2.7817063331604004] [-3.7051372528076172:2.4344923496246338] [-3.4648685455322266:1.9165676832199097] [-1.8308520317077637:2.0877408981323242] [-3.4171972274780273:6] [-3.4964468479156494:2.0335566997528076] [-1.3686642646789551:4.426663875579834] [-1.9444209337234497:3.8189568519592285] [-1.1052819490432739:2.4060144424438477] [-6:6] [-0.67501568794250488:6] [-1.6129144430160522:4.9925599098205566] [-3.7925522327423096:2.7611856460571289] [-1.4988220930099487:3.8080976009368896] [-0.22825793921947479:5.5574984550476074] [-1.4787187576293945:6] [-0.71075546741485596:6] [-0.99200576543807983:6.0000004768371582] [-0.89227145910263062:6] [-0.86122661828994751:6] [-6:6] [-6:6] [-6:6] [-1.2488085031509399:5.4673538208007812] [-1.5437686443328857:1.6471458673477173] [-6:6] [-2.2288973331451416:2.2297017574310303] [-1.696958065032959:5.0477781295776367] [-6:6] [-5.9999995231628418:5.9999995231628418] [-1.2675522565841675:6] [-2.2977206707000732:4.6706843376159668] [-6:6] [-1.5340313911437988:1.6568918228149414] [-0.73069387674331665:6.0000004768371582] [-1.8725693225860596:1.6705737113952637] [0:2.8569667339324951] [-1.893921971321106:6] [-0.37457448244094849:4.2373104095458984] [-2.3548390865325928:4.3549346923828125] [-2.4543471336364746:2.2617528438568115] [-2.2469170093536377:2.2493512630462646] [-3.8790373802185059:4.0845308303833008] [-1.8157742023468018:5.3944802284240723] [0:2.5476508140563965] [-6:6] [-4.0895605087280273:4.1824350357055664] [-6:6] [-1.3798415660858154:6] [-0.2272438108921051:3.3494789600372314] [-1.7465678453445435:1.6477267742156982] [-1.4996297359466553:6] [-0.319019615650177:5.9999995231628418] [-0.19030386209487915:3.0046865940093994] [-0.45576268434524536:6] [-1.268949031829834:6] [-1.0389033555984497:5.9999985694885254] [-2.4719722270965576:3.4324300289154053] [-0.51278680562973022:6] [-1.4381949901580811:6] [-0.19874954223632812:5.9999995231628418] [0:1] [0:1] [0:1] [0:1] [0.0045921802520751953:1] [0:0.69313663244247437] [-0.27632644772529602:2.0547342300415039] [-0.27667340636253357:2.3468906879425049] [-0.2771967351436615:3.41977858543396] [-0.27459397912025452:1.5456267595291138] [-0.27694299817085266:2.4281959533691406] [-0.27392598986625671:1.9759836196899414] [-0.27375894784927368:1.7963768243789673] [-0.27599930763244629:2.0609493255615234] [-0.27819886803627014:1.7077875137329102] [-0.27281388640403748:1.9668188095092773] [-0.27472120523452759:3.0323436260223389] [-0.27539947628974915:1.5211976766586304] [-0.27813944220542908:2.5018987655639648] [-0.27728644013404846:1.4887299537658691] [-0.27175727486610413:2.3152058124542236] [-0.27811995148658752:2.9621505737304688] [-0.27561184763908386:2.6925861835479736] [-0.27773475646972656:1.6921745538711548] [-0.27529016137123108:2.0315229892730713] [-0.27769136428833008:2.3149926662445068] [-0.27758634090423584:1.8560603857040405] [-0.27528515458106995:3.1239621639251709] [-0.27786263823509216:1.5843013525009155] [-0.27392619848251343:2.1751730442047119] [-0.27012214064598083:2.5203344821929932] [-0.27817299962043762:1.9148668050765991] [-0.27434921264648438:3.1440246105194092] [-0.27536547183990479:3.1294469833374023] [-0.27704325318336487:1.8133220672607422] [-0.27043280005455017:1.8857326507568359] [-0.27732816338539124:2.8528010845184326] [-0.27633780241012573:4.3717360496520996] [-0.27648821473121643:3.4588000774383545] [-0.27124866843223572:4.2630763053894043] [-0.27651718258857727:1.6275326013565063] [-0.27525779604911804:2.1327016353607178] [-0.27260506153106689:1.4861079454421997] [-0.27464592456817627:2.6925761699676514] [-0.27400651574134827:2.6190049648284912] [-0.27258124947547913:1.8016767501831055] [-0.27738925814628601:2.0310633182525635] [-0.27712398767471313:2.7103397846221924] [-0.27581000328063965:4.1036930084228516] [-0.27440261840820312:1.8307226896286011] [-0.27792307734489441:3.3166344165802002] [-0.27592495083808899:1.7442809343338013] [-0.2781912088394165:3.7507922649383545] [-0.27727416157722473:2.0660247802734375] [-0.27323368191719055:2.5451235771179199] [-0.27796187996864319:3.6148643493652344] [-0.27678999304771423:3.1942977905273438] [-0.25261533260345459:2.7988929748535156] [-0.27624508738517761:1.9481987953186035] [-0.27581962943077087:1.698083758354187] [-0.27618506550788879:2.7896223068237305] [-0.27545017004013062:4.6811909675598145] [-0.27179160714149475:1.5958429574966431] [-0.27754589915275574:1.8052973747253418] [-0.27595493197441101:2.3887252807617188] [-0.2720264196395874:4.2271485328674316] [-0.27122107148170471:1.731413722038269] [-0.27761995792388916:3.2583358287811279] [-0.26854446530342102:3.4050407409667969] [-0.27557185292243958:2.6845467090606689]
tree_sizes=5105 5274 5306 5285 5283 5286 5276 5281 5272 5282 5285 5301 5301 5287 5279 5303 5292 5311 5297 5313 5294 5304 5295 5297 5290 5317 5300 5307 5305 5292 5285 5289 5310 5295 5312 5290 5307 5303 5284 5305 5316 5275 5291 5293 5317 5305 5282 5316 5303 5303 5306 5288 5305 5288 5311 5310 5311 5305 5301 5293 5322 5305 5309 5285 5308 5305 5296 5283 5290 5305 5302 5318 5319 5311 5294 5297 5304 5315 5293 5314 5321 5308 5318 5314 5321 5319 5313 5323 5318 5311 5318 5320 5300 5312 5298 5302 5306 5295 5308 5321 5301 5324 5311 5301 5308 5316 5314 5333 5302 5316 5314 5284 5304 5312 5323 5301 5316 5313 5298 5315 5330 5305 5314 5292 5299 5289 5304 5329 5299 5332 5274 5315 5311 5317 5275 5315 5323 5305 5323 5308 5304 5312 5291 5312 5320 5315 5336 5315 5307 5295 5332 5325 5309 5323 5302 5286 5317 5316 5323 5306 5318 5323 5292 5318 5314 5308 5311 5327 5301 5331 5303 5331 5329 5325 5304 5299 5318 5315 5329 5285 5320 5302 5333 5306 5323 5301 5321 5308 5318 5300 5323 5309 5319 5337 5305 5304 5309 5307 5311 5324 5321 5312 5309 5286 5333 5307 5303 5315 5299 5315 5326 5321 5308 5326 5323 5323 5313 5323 5317 5320 5306 5314 5324 5340 5307 5315 5313 5314 5312 5320 5303 5320 5311 5332 5309 5320 5304 5325 5325 5305 5309 5328 5328 5324 5329 5329 5318 5331 5342 5301 5331 5343 5314 5317 5334 5327 5318 5345 5326 5318 5321 5325 5339 5300 5317 5278 5333 5317 5323 5309 5317 5348 5305 5317 5336 5315 5306 5337 5333 5304 5312 5330 5317 5321 5321 5319 5309 5306 5333 5321 5351 5307 5286 5325 5340 5316 5333 5336 5324 5265 5333 5276 5319 5299 5289 5300 5311 5322 5302 5341 5344 5325 5308 5321 5320 5334 5336 5316 5327 5316 5313 5332 5268 5322 5328 5334 5322 5322 5322 5319 5290 5325 5319 5324 5287 5339 5313 5325 5339 5322 5316 5332 5322 5313 5322 5335 5350 5337 5326 5317 5297 5318 5294 5338 5309 5340 5320 5286 5306 5323 5308 5296 5312 5316 5318 5334 5349 5314 5335 5316 5308 5332 5321 5318 5340 5293 5292 5323 5342 5330 5335 5347 5336 5336 5321 5344 5313 5331 5321 5328 5317 5309 5326 5308 5273 5321 5337 5341 5350 5320 5326 5332 5313 5345 5325 5335 5322 5309 5325 5326 5297 5328 5305 5322 5319 5321 5323 5345 5349 5302 5309 5336 5314 5329 5331 5339 5329 5293 5320 5318 5327 5296 5301 5319 5330 5334 5315 5323 5324 5323 5331 5333 5324 5323 5312 5330 5321 5326 5317 5308 5316 5299 5329 5316 5335 5345 5297 5308 5290 5326 5304 5336 5346

Tree=0
num_leaves=48
num_cat=0
split_feature=142 118 87 126 128 90 130 92 111 66 130 142 132 138 142 135 45 66 73 104 1 54 27 106 87 139 100 142 101 136 124 118 45 32 125 126 125 10 146 34 5 92 19 11 117 149 138
split_gain=188.719 146.626 98.5463 96.531 54.6602 67.56 42.6715 45.625 40.907 39.8772 36.9088 27.8213 31.631 27.7984 24.423 24.0442 24.1396 23.8455 23.6013 23.1569 28.5602 22.7225 22.7199 22.4764 20.7759 20.2289 19.5967 18.9536 24.6315 18.8628 18.83 18.5401 18.4307 23.2619 17.9111 17.6661 17.5683 17.1258 16.8763 17.2741 16.7423 16.3338 17.6338 16.1983 15.9639 17.2191 15.9212
threshold=0.37576799094676977 0.54948878288269054 0.37947916984558111 0.61226555705070507 0.26269310712814337 0.36307293176651007 0.31122820079326635 0.291536495089531 0.87275871634483349 -0.55789914727210987 0.28177206218242651 0.052151672542095191 -0.0063109945040196172 0.84579288959503185 -0.046243283897638314 0.36625397205352789 -0.81442031264305104 1.4701346158981325 0.59737890958786022 0.43578478693962103 1.2704929113388064 1.5184897780418398 0.79269763827323925 -0.12681093811988828 0.041424695402383811 0.49802535772323614 0.1265063360333443 0.18239392340183261 0.23278995603322986 0.41239835321903234 -0.20960710942745206 -0.13010184466838834 -0.62016600370407093 0.031609620898962028 -0.079757772386074052 0.16964919120073321 0.11127858981490137 -0.029062156565487381 0.17441162467002871 0.62581485509872448 0.91577723622322094 -0.076465498656034456 0.39163419604301458 0.88144871592521679 0.06968416273593904 0.17052074521780017 0.53262975811958324
decision_type=2 2 2 2 2 2 2 2 2 2 2 2 2 2 2 2 2 2 2 2 2 2 2 2 2 2 2 2 2 2 2 2 2 2 2 2 2 2 2 2 2 2 2 2 2 2 2
left_child=1 2 6 8 5 11 7 22 10 -2 27 12 18 23 40 26 -17 46 -4 -12 37 24 31 -11 -8 35 34 -3 -29 -27 -24 -1 -7 -34 -16 36 -25 -21 -14 -40 -9 42 -37 44 45 -33 -6
right_child=9 3 4 -5 17 32 21 14 -10 13 19 -13 38 -15 15 16 -18 -19 -20 20 -22 -23 30 25 -26 29 -28 28 -30 -31 -32 43 33 -35 -36 41 -38 -39 39 -41 -42 -43 -44 -45 -46 -47 -48
leaf_value=0.13710992722633511 0.15859882634270328 0.097522037553166074 0.1579294361257656 0.15418680608512444 0.15861495005813253 0.097386109744960037 0.13436369814974691 0.12729329380083823 0.14499110391034714 0.12726621201389254 0.10990120649558238 0.15607494861925497 0.104090855945216 0.11460593133190865 0.10469798279000785 0.11926901391973199 0.16313673111423721 0.12330580647997866 0.1216197336782846 0.16423103978486142 0.10376407789139863 0.1091307074904769 0.096238738079244796 0.131191654234635 0.15354832398361579 0.14603960269792343 0.12105516809437561 0.15012096210886397 0.10142873599571683 0.11123270980949121 0.13588726305246709 0.11227295449544494 0.11083414778655466 0.15159394045555341 0.14718150571594149 0.10796446879663063 0.15307342938975074 0.12571464007209165 0.1420993864273456 0.10300695819584767 0.091943576642811498 0.1608516180824823 0.16240677222879218 0.13575622231129655 0.10498029892456023 0.1333339303436136 0.13590816276344272
leaf_weight=15.120339485118164 99.459417791571468 93.791516295401379 28.379312223056331 22.704901412129402 101.21320252772421 16.605951506644487 51.145110884215683 20.338878855109218 12.816009894013403 24.573447820730507 37.135618128348142 43.418653394561261 12.624363952782003 12.784278122242538 4.4317803569138041 6.276727564167234 23.959375157952309 9.7055764612741751 9.4964614640921337 10.839244147762658 8.4556286595761758 8.7254205667413753 5.3296642927452913 27.969696088926867 40.230670023825951 14.790827078046279 31.780136900488287 6.7506934599950936 10.583629189059137 10.667664747685192 43.481053633382544 53.005254786461592 16.434589916840199 8.412412438541649 34.153684293152764 5.1661215559579414 30.64956685830839 7.9311706591397551 18.461638547945771 5.9286275953054419 7.2889544963836661 65.706243087188341 4.3230068342527375 12.466531127225606 67.453629022929817 22.104220820474438 14.183368190773761
leaf_count=90 311 197 117 55 296 44 370 93 24 107 128 149 42 51 20 23 87 42 28 26 13 37 24 144 194 100 151 27 36 51 319 227 47 30 195 25 156 28 90 18 13 242 19 49 208 105 54
internal_value=0.134348 0.129974 0.134209 0.115287 0.143401 0.135641 0.128353 0.125035 0.110587 0.148275 0.108067 0.143346 0.135943 0.143044 0.134502 0.139085 0.153987 0.1533 0.148794 0.120162 0.134215 0.139849 0.119488 0.145032 0.142805 0.14778 0.132686 0.10108 0.12044 0.131477 0.131544 0.116037 0.113691 0.124681 0.142244 0.150889 0.142622 0.147924 0.122817 0.132593 0.117871 0.157311 0.132889 0.113975 0.112063 0.118453 0.155835
internal_weight=1239.25 943.164 732.156 211.008 284.864 159.762 447.291 347.19 188.304 296.09 175.488 118.309 74.8904 196.631 128.23 100.602 30.2361 125.102 37.8758 64.3617 27.226 100.101 218.961 183.847 91.3758 159.273 70.3656 111.126 17.3343 25.4585 48.8107 170.15 41.453 24.847 38.5855 133.815 58.6193 18.7704 37.0146 24.3903 27.6278 75.1954 9.48913 155.03 142.563 75.1095 115.397
internal_count=4902 3696 3162 534 957 565 2205 1604 479 1206 455 444 295 895 582 476 110 392 145 195 67 601 1022 844 564 737 366 260 63 151 343 679 121 77 215 586 300 54 150 108 106 286 44 589 540 332 350
is_linear=0
shrinkage=1


Tree=1
num_leaves=48
num_cat=0
split_feature=142 118 87 126 127 91 127 96 142 122 99 99 105 143 113 70 64 134 87 48 142 117 10 45 97 114 42 105 127 118 81 142 61 101 31 142 142 33 60 107 48 122 118 86 61 108 90
split_gain=161.096 136.84 121.281 61.93 58.9778 56.0694 47.4717 46.1838 36.1266 36.0288 34.3384 29.2802 28.9503 31.812 34.0847 27.762 27.222 26.9488 23.6122 23.3613 23.1146 23.0286 21.1231 20.479 18.4081 18.5527 18.0734 17.2957 17.1329 21.5906 16.5436 16.4025 16.0696 15.9578 16.6624 15.6821 15.2101 15.1299 18.2531 14.9549 19.8179 14.9146 15.72 14.8869 14.8523 14.1446 13.9728
threshold=0.45430314540863043 0.54948878288269054 0.4851087778806687 0.64264193177223217 0.51705589890480053 0.3149010837078095 0.036590000614523895 1.4666377305984499 0.10839496552944185 1.0000000180025095e-35 0.11750906705856325 0.70091113448143016 0.93303051590919506 0.16844631731510165 -0.1236487217247486 0.074348125606775298 1.9308288693428042 0.17255594581365588 0.79260876774787914 0.84281206130981456 0.12090367078781129 0.44396580755710607 -1.132855951786041 1.1365687251091006 0.0089610288850963133 -0.12017367780208586 1.5373997688293459 0.46179275214672094 0.26205419003963476 -0.037718417122960084 1.7490192788575502e-31 0.29808075726032263 0.96975943446159374 0.54267513751983654 1.6201730370521548 0.032344413921236999 0.20488707721233371 -0.057283816859126084 0.0012171813868917527 0.03994982689619065 0.063733264803886427 0.46783518791198736 0.043233441188931472 -0.2087675258517265 -2.074637651443481 0.16320785135030749 -0.025521558709442612
decision_type=2 2 2 2 2 2 2 2 2 2 2 2 2 2 2 2 2 2 2 2 2 2 2 2 2 2 2 2 2 2 2 2 2 2 2 2 2 2 2 2 2 2 2 2 2 2 2
left_child=1 2 4 7 5 12 9 8 18 -4 -2 21 13 14 -1 36 23 20 43 37 41 39 -7 30 25 -24 -19 -17 29 -12 -6 -21 -5 34 44 45 -16 38 -10 40 -11 42 -8 -3 -15 -23 -32
right_child=10 3 6 32 16 22 17 -9 19 11 28 -13 -14 33 15 27 -18 26 -20 31 -22 35 24 -25 -26 -27 -28 -29 -30 -31 46 -33 -34 -35 -36 -37 -38 -39 -40 -41 -42 -43 -44 -45 -46 -47 -48
leaf_value=0.015306166444323158 0.025783523253326758 -0.0041256267460113884 -0.025497012441052604 -0.0015103808084032068 0.030655967994151705 -0.014376702648916991 0.0096408321445224342 0.025338619516995686 0.024316743444460758 -0.024042976706627802 0.020372324472125693 -0.035157510113870492 0.022839638151159556 0.014990947062522757 -0.010812506908035945 -0.025783589360460192 -0.03774838094202853 0.028722827513460919 -0.0015434674918547498 -0.0094231989166512348 0.02838792634504295 0.0063536839385081615 0.022098586495183353 -0.019729089619957407 0.011274977751409345 -0.01951497135790255 0.00028843737607971257 0.011524508572411328 0.020449613418718086 -0.0014271181622609271 -0.014924963111837622 0.027359648375974849 0.032867849167207946 -0.034197118367875153 0.022007487543765924 0.018091529100744092 0.006407102015387375 -0.027130458410505404 -0.018472461468767909 0.02378248227958844 0.02611933699411452 0.021576375634990121 -0.028413106963180539 -0.033948206101348716 -0.018657376812521817 -0.032717677691763911 0.015341763823338395
leaf_weight=24.470540360081941 77.842533096438274 7.230805702507495 16.286206802353263 11.766350798308851 24.380324773490429 22.076986058615148 6.7677943333983483 8.1274105571210367 5.9856622759252813 6.8704285244457406 24.682775431778282 6.021358096972107 9.2552471123635751 5.3730874499306074 45.902157336706296 46.321610186249018 4.2099877446889868 84.196845499332994 11.155596196651457 10.698170131072404 11.764642668887971 5.9601299352943924 5.6719412207603481 6.3799974489957085 86.037428401497891 16.893241492332891 10.083991792984305 5.4992359895259133 37.129479636438191 68.241111828479916 7.4238272272050372 8.7570639997720701 9.9736848119646293 23.15768364071846 4.3400760386139146 7.1113559566438189 36.958351113367826 31.172868217341602 11.669502777978776 39.745825089979917 5.7298900177702308 6.012262685224413 11.812364205019547 109.08321541291662 146.68946840177523 9.5310414321720582 32.698506445623934
leaf_count=154 247 12 48 35 59 109 30 11 25 27 128 18 29 21 265 169 10 228 22 30 41 18 22 31 466 75 31 26 154 337 52 22 17 65 24 27 230 109 49 152 21 24 41 250 673 34 211
internal_value=-0.000752266 -0.00406154 -9.93712e-05 -0.0177805 -0.00515468 -0.00774132 0.0121781 -0.021204 -0.0231475 0.00158593 0.0152735 0.00705808 -0.0119364 -0.0128928 -0.0063699 -0.0103199 0.0113137 0.0200524 -0.0294403 -0.0113727 0.0053802 0.0104842 0.00342172 0.0142664 0.00705398 -0.00898512 0.0256939 -0.0217979 0.00896757 0.00436041 0.017657 0.00710968 0.0142547 -0.0186654 -0.0163491 -0.00634468 -0.00312074 -0.0187571 -0.00388138 0.0177689 -0.00113996 -0.00562103 -0.0145097 -0.0321054 -0.0174573 -0.0176488 0.00970502
internal_weight=1215.15 1007.25 781.634 225.62 553.74 478.647 227.894 203.88 195.753 97.2562 207.896 80.97 347.967 338.712 159.152 134.681 75.0926 130.638 127.47 68.2833 36.3571 74.9487 130.68 70.8827 108.603 22.5652 94.2808 51.8208 130.053 92.9239 64.5027 19.4552 21.74 179.56 156.403 22.6025 82.8605 48.828 17.6552 52.3461 12.6003 24.5924 18.5802 116.314 152.063 15.4912 40.1223
internal_count=4879 4013 3431 582 2691 2328 740 530 519 345 866 297 1656 1627 844 690 363 395 284 235 136 279 672 353 563 97 259 195 619 465 322 52 52 783 718 79 495 183 74 200 48 95 71 262 694 52 263
is_linear=0
shrinkage=0.02


Tree=2
num_leaves=48
num_cat=0
split_feature=143 138 105 126 140 143 40 105 93 132 101 124 1 145 125 75 147 3 126 104 95 149 111 121 102 65 66 130 111 106 5 19 28 72 138 126 138 143 133 110 95 51 76 129 19 70 125
split_gain=157.211 130.505 75.0418 60.921 49.7535 48.6134 48.0735 41.9916 42.0751 41.9531 41.1911 36.5176 30.8258 28.8978 28.9679 26.3212 25.775 25.3427 24.713 26.5476 24.6198 23.3954 24.6154 23.1719 21.1228 28.708 20.5428 20.4988 24.7341 20.8206 26.6198 18.9824 18.7297 18.7002 18.1668 18.0915 17.7596 17.5661 17.0268 16.774 18.3015 23.3304 17.254 16.4813 14.9983 14.6708 14.5618
threshold=0.24592990428209308 0.42203786969184881 0.46179275214672094 0.662132889032364 0.32904624938964849 0.69592308998107921 -1.4045822620391843 0.40627560019493109 0.29582980275154119 0.91448935866355907 0.41187292337417608 0.45298482477664953 -0.55286628007888783 0.0063823361415416011 0.0940561778843403 -0.50995990633964527 0.084280677139759078 -0.25376994907855982 0.47707580029964453 -0.19221353530883786 0.54514226317405712 0.21308053284883502 0.63502097129821788 0.72734588384628307 0.15546023100614551 0.063464038074016585 0.38498687744140631 0.23819199949502948 0.51405635476112377 0.11966548860073091 -0.039169546216726296 -0.84071886539459217 1.0000000180025095e-35 0.98217937350273143 0.16235877573490146 0.049578625708818443 0.099822118878364577 0.39190936088562017 0.097102597355842604 0.16944909095764163 0.23331416398286822 0.95906761288642894 0.95093616843223583 0.19079489260911944 -0.11977310106158255 0.39351554214954382 -0.0095748258754610998
decision_type=2 2 2 2 2 2 2 2 2 2 2 2 2 2 2 2 2 2 2 2 2 2 2 2 2 2 2 2 2 2 2 2 2 2 2 2 2 2 2 2 2 2 2 2 2 2 2
left_child=1 2 9 5 10 7 -7 11 15 18 39 16 -11 -10 -15 -9 21 44 19 -1 31 22 34 -4 -16 -26 -20 28 32 30 -30 -18 -21 -24 -2 -19 -17 -38 -5 42 -41 -42 43 -3 45 -6 -8
right_child=3 4 23 38 17 6 46 8 13 12 -12 -13 -14 14 24 36 20 35 26 27 -22 -23 33 -25 25 -27 -28 -29 29 -31 -32 -33 -34 -35 -36 -37 37 -39 -40 40 41 -43 -44 -45 -46 -47 -48
leaf_value=-0.032075423956382972 -0.0021411254462996698 -0.0057924570511351794 0.026438234032405271 -0.0017552113908607418 -0.011168021640290945 0.02369306049960701 -0.036700168907761073 -0.012844398103066057 0.016120948533558572 0.014028455413756325 -0.032655100727179281 -0.027923507391739124 -0.033040892360332218 -0.034780404160333477 0.018528289734259466 0.026359398219125852 -0.029261527594683503 -0.033987145930058471 0.025296879236018265 -0.014546973188148203 -0.039922842754891712 0.016622804753892943 0.031267226024736423 0.0012000605478731446 -0.028727769945118744 0.017321848574946282 0.0028270125413342186 0.01397594049823709 0.017850269260604183 0.027226709505105921 -0.030051431389431546 -0.0050333379996203428 0.0037889184759496704 -0.018679918289522267 -0.027570994523159635 0.0095070607033368691 -0.015034728133669054 0.022031051425061218 0.023425305471034642 0.0090769276973435217 -0.017960519425915932 0.02836627562897737 0.013174482976788884 -0.030425109010668219 0.030320455492272597 0.023397857743215709 -0.020223186846687734
leaf_weight=7.091945329681038 24.766176573932171 18.751102175563574 140.71837730286643 16.844589767511934 9.9805132132023591 8.5257105231285077 32.331093478016555 13.058453246951101 14.572860276326535 8.1959521286189574 31.406106416136026 45.111112159211189 16.986507347784936 19.911169463768601 10.852935697883366 38.907390571665019 16.855288688209839 7.5147285964339954 56.212617904646322 38.408631415222771 13.699195588007568 24.530024897889234 9.9798950301483256 16.327606042847037 17.731289166957144 7.7183335986919692 23.065627495758235 98.554296373156831 11.867818343918772 23.307385483058169 7.5477470383048049 55.872964259120636 52.814165697200224 4.2111715546343467 20.677218026248738 7.6523630954325199 10.293762907385828 10.049106882885097 29.225753227248788 36.933385443291627 29.545205036178231 5.0368876680731764 7.1095086631830773 26.258499823161401 20.308997685089707 9.5427222484722716 66.332131646748167
leaf_count=24 137 110 335 77 46 22 82 39 51 25 98 138 47 58 42 111 66 22 240 233 42 132 46 44 45 27 132 547 49 85 19 258 278 22 123 34 41 43 103 208 134 17 51 140 62 24 219
internal_value=0.000733357 0.00681815 0.0123654 -0.00771501 -0.00641121 -0.00988559 -0.0217054 -0.00634917 0.00204503 0.00713043 -0.0122108 -0.0119216 -0.0176845 -0.00890451 -0.0154185 0.0127766 -0.00767729 0.00991557 0.00909576 0.00588464 -0.0153457 0.000189909 -0.0065611 0.0238219 -0.0047381 -0.0147161 0.0187779 0.00705348 0.00194931 0.0145035 -0.00074937 -0.0106784 -0.00392405 0.0163617 -0.0137515 -0.0120178 0.0184463 0.00323536 0.014205 -0.00699824 -0.000692424 -0.0111529 -0.0156227 -0.0202031 0.0182969 0.00569288 -0.0256485
internal_weight=1223.2 711.139 501.099 512.058 210.04 465.987 107.189 358.798 143.095 344.053 155.041 215.703 25.1825 70.7866 56.2137 72.3087 170.592 54.9993 318.87 239.592 86.4274 84.1645 59.6345 157.046 36.3026 25.4496 79.2782 232.5 133.946 42.723 19.4156 72.7283 91.2228 14.1911 45.4434 15.1671 59.2503 20.3429 46.0703 123.635 71.5155 34.5821 52.1191 45.0096 39.8322 19.5232 98.6632
internal_count=4928 3004 2058 1924 946 1744 323 1421 457 1679 758 964 72 223 172 234 826 188 1607 1235 366 460 328 379 114 72 372 1211 664 153 68 324 511 68 260 56 195 84 180 660 359 151 301 250 132 70 301
is_linear=0
shrinkage=0.02


Tree=3
num_leaves=48
num_cat=0
split_feature=142 87 118 91 127 126 100 105 127 128 95 135 138 132 144 53 101 96 105 31 138 148 134 125 101 128 111 44 9 91 97 22 140 53 20 67 80 136 95 5 141 52 91 132 142 49 5
split_gain=171.971 142.599 110.489 51.5895 58.0248 50.7249 50.2468 49.3218 46.2144 39.0244 42.3582 36.8839 31.1253 27.7868 31.3426 27.0283 25.7747 25.039 24.6577 23.9458 23.4272 22.2918 21.2384 20.487 19.4055 19.3295 19.0438 24.2413 24.4186 18.0592 18.8097 17.4447 21.6244 18.7035 17.7116 16.857 16.4839 16.4583 19.7094 16.7825 16.3287 15.8409 14.9635 14.6861 14.199 16.4068 18.9524
threshold=0.35260115563869482 0.57719999551773082 0.54948878288269054 0.35688890516757971 0.51705589890480053 0.68320953845977794 0.60181504487991344 0.76450657844543468 0.30433012545108801 0.26804125308990484 0.091107204556465163 0.23438443988561633 0.2568389773368836 0.073137819766998305 0.57109934091568004 0.50759974122047435 0.44619107246398931 1.240232050418854 0.67386925220489513 -0.19271210581064221 0.7624206840991975 0.30691716074943548 0.33582241833209997 0.24688262492418292 0.25486654043197637 -0.095893032848834978 0.61643347144126903 -0.033484140411019318 -0.3282636404037475 -0.18879330903291699 0.61689797043800365 -0.072044227272272096 0.64079442620277416 1.7509672045707705 1.0000000180025095e-35 0.14023782312870028 5.5216523691824167e-34 0.66965180635452282 0.2488377243280411 0.56844946742057811 0.138602189719677 -0.78710973262786854 -0.0024507823400199409 0.14506214857101443 0.14013976603746417 0.014431787654757501 1.2004152536392214
decision_type=2 2 2 2 2 2 2 2 2 2 2 2 2 2 2 2 2 2 2 2 2 2 2 2 2 2 2 2 2 2 2 2 2 2 2 2 2 2 2 2 2 2 2 2 2 2 2
left_child=1 2 3 4 7 17 9 13 11 10 22 16 19 14 29 43 20 24 -17 -8 -2 36 23 -3 37 -13 27 28 -11 -1 35 33 -33 34 -5 -31 -6 38 39 -4 41 -15 -32 -12 -42 -46 -47
right_child=8 6 5 31 21 -7 12 -9 -10 26 15 25 -14 40 -16 18 -18 -19 -20 -21 -22 -23 -24 -25 -26 -27 -28 -29 -30 30 42 32 -34 -35 -36 -37 -38 -39 -40 -41 44 -43 -44 -45 45 46 -48
leaf_value=0.029962921464612872 0.0082428658711722995 0.019074849717300644 -0.022557897849170946 -0.0051478685530346058 0.01100758786021762 0.016780625542253073 0.022177928208337368 0.020823138139843267 0.024281371563807452 -0.033796503908303313 0.032399350958337292 -0.0045933603944738298 -0.037707444989977947 -0.024449783554869021 0.018602908490779457 -0.026656204658483139 -0.021048333545773321 0.0093883174983430875 0.018319369671229126 -0.017837483500141162 -0.019241743186172947 0.024890950759551278 0.02884701119897071 -0.024867309339643068 -0.033251849269527942 0.022310936734849046 0.031516988369662248 0.024799209038043456 0.012478427052679583 -0.0097659115489361122 -0.027627875964083514 0.0036747274310622731 -0.030970945617146473 -0.019609703710405858 0.025622475184254458 -0.027394234919574489 -0.020645916885869937 -0.039345682314299711 -0.028658514230987312 0.015450500603587096 -0.032933809331015237 -0.0045019020070603552 0.025609129569489464 -0.0096957663227489818 0.0041277346304469022 -0.033131782913019409 0.0026801679842420856
leaf_weight=4.2661251225508741 95.818790844059549 10.074318758910524 7.1049237661063698 9.3045307011343521 17.196798861725259 11.70921961404383 11.437228004448116 18.064203350804746 100.0406703860499 6.8353056604973998 7.8475815402343851 12.523550396552308 12.356611397117375 25.166092229541391 16.815350973047316 27.519195695407689 18.084193111862987 7.3909515738487235 5.8590734358876935 12.424381271004677 14.184418678749351 25.218544617295265 27.887495236005634 7.2551219239830962 97.047498249914497 69.745486796135083 47.426359850447625 31.873713917098939 13.440044882241635 94.495668024523184 2.7175091090612122 85.115819533762988 7.8208655077032736 5.4381465194746843 36.821239402517676 28.313026684336364 10.585675664711742 10.33180161565542 14.068577372469006 13.184040926396845 43.818245621980168 43.731897570425645 8.7554634474217856 5.6323506720364094 11.165797844179904 23.180414781440053 7.8516784375533453
leaf_count=18 529 37 39 48 142 30 26 58 371 19 22 57 21 116 103 101 70 13 20 23 65 80 72 26 252 226 101 99 47 558 14 437 24 19 158 96 52 15 53 47 145 218 61 23 72 87 28
internal_value=0.00022636 -0.00413858 -0.00868859 -0.0042484 -0.00810544 -0.0231934 0.00956734 -0.0112414 0.013089 0.0136523 0.00424983 0.00775685 -0.0120097 -0.0131144 -0.00712424 -0.00905722 0.00103517 -0.0263433 -0.0187159 0.00130695 0.00468263 0.0112952 0.0180568 0.000601926 -0.0282163 0.0182029 0.0223299 0.0139335 -0.00311752 -0.0102595 -0.0115555 0.00592283 0.000733363 0.015247 0.0193949 -0.0138477 -0.00103252 -0.0172337 -0.0105077 0.00206857 -0.0191113 -0.0118151 0.0128474 0.0147659 -0.0249336 -0.0165734 -0.0240488
internal_weight=1224.95 914.549 686.68 525.843 381.342 160.837 227.869 328.341 310.397 191.651 92.0751 210.356 36.2182 310.277 155.363 46.8582 128.087 149.128 33.3783 23.8616 110.003 53.001 45.2169 17.3294 141.737 82.269 99.5754 52.1491 20.2754 138.548 134.282 144.501 92.9367 51.5639 46.1258 122.809 27.7825 44.6893 34.3575 20.289 154.914 68.898 11.473 13.4799 86.0161 42.1979 31.0321
internal_count=4938 3620 2983 2534 1848 449 637 1574 1318 567 301 947 70 1516 850 166 664 419 121 49 594 274 135 63 406 283 266 165 66 747 729 686 461 225 206 654 194 154 139 86 666 334 75 45 332 187 115
is_linear=0
shrinkage=0.02


Tree=4
num_leaves=48
num_cat=0
split_feature=142 111 99 81 87 99 92 142 96 27 1 112 110 142 52 87 126 111 50 27 110 63 103 105 73 75 90 59 99 133 92 119 126 134 73 115 6 108 46 92 11 31 102 69 57 105 64
split_gain=191.344 123.114 110.813 59.1643 54.1168 53.7239 48.6667 46.2856 36.3899 32.1534 26.217 26.2024 30.3127 24.9991 24.8704 24.8567 24.0563 23.0438 30.3275 21.7205 25.5403 21.686 21.4161 20.7851 19.8941 19.7304 18.9597 18.8907 18.7044 18.6771 18.6358 17.8045 17.3024 17.2055 16.7304 16.7196 16.4669 15.8526 15.6969 15.1266 14.8972 18.031 16.0846 18.3037 14.8951 14.1876 15.7517
threshold=0.37576799094676977 0.90980464220047008 0.30152189731597906 0.99996909499168407 0.53072318434715282 0.12455992400646211 0.16997582465410235 -0.14750778675079343 0.15101116895675662 -0.35685005784034723 -0.57452192902564991 -0.030150301754474636 0.48038752377033239 0.12090367078781129 -1.4461920261383054 0.82332029938697826 0.38032722473144537 0.23565421253442767 2.1368061304092412 -1.0038112401962278 0.56959393620491039 1.0000000180025095e-35 0.33186200261116033 0.25625319778919226 -0.115996565669775 -0.94438949227333058 -0.018365027382969853 1.098823130130768 0.15101546794176104 0.24126997590065005 0.61955225467681896 0.054762626066803939 0.10686141252517702 0.1466363072395325 -0.062092313542962067 0.059358099475502975 -1.1288107633590696 0.10380087047815324 1.3337007164955141 -0.0052965036593377582 -0.06787447631359099 1.5427172780036928 0.31545378267765051 -0.11793545633554457 0.082459069788455977 0.3825326561927796 -0.46921777725219721
decision_type=2 2 2 2 2 2 2 2 2 2 2 2 2 2 2 2 2 2 2 2 2 2 2 2 2 2 2 2 2 2 2 2 2 2 2 2 2 2 2 2 2 2 2 2 2 2 2
left_child=1 2 4 11 6 24 9 14 13 26 35 12 -4 16 -6 -13 -8 18 19 20 -10 25 23 -5 38 -3 44 39 -19 -29 -16 45 -33 -27 -18 -7 -11 -37 -2 -9 -38 42 -42 -44 -1 46 -12
right_child=5 21 3 22 7 10 8 27 17 36 31 15 -14 -15 30 -17 34 28 -20 -21 -22 -23 -24 -25 -26 33 -28 29 -30 -31 -32 32 -34 -35 -36 37 40 -39 -40 -41 41 -43 43 -45 -46 -47 -48
leaf_value=-0.018563282411024725 0.016758256765364958 -0.011640965155862442 -0.019475044565753871 -0.0055437264300235555 0.022547910657687745 0.030494292326807622 -0.0223273344167625 0.0027390894971298851 -0.029641070130360415 0.012746796924574064 0.020959538751913288 -0.031877782076163819 0.031983022314121937 0.0043880527985600227 -0.026265899574770716 0.0024792289118881141 0.028439964250082252 0.024142009634977715 -0.035209889780618418 0.012406746747543534 0.016981552108327146 -0.0076326529428442655 -0.018517156212190206 0.021027591372758211 0.028829895318370675 0.002096994321147148 -0.025098932076680715 0.019361258282085209 -0.006506328423669697 -0.023634299880213629 0.0091562726655564173 -0.021718298538169596 0.0036340456139580101 0.029372094048643743 -0.012089262743412659 -0.0054680463692402849 -0.01491948288737751 0.024106344288649162 -0.020682688030868181 0.024274135466153552 0.018050606149970592 -0.03942118686213613 0.011895904479305205 -0.030515823578699214 0.027310100458912752 0.027869388658877531 -0.0026018078111570814
leaf_weight=6.0657563460990769 25.867895731003959 6.3245169231668106 18.419026418589059 62.440828124992549 7.7498247325420371 24.406850348692387 49.550965528411325 16.32487598573789 12.514441610313954 16.850629671243951 15.270244329702107 116.53162341052666 6.0311979316174975 41.69164951145649 23.448915378889073 9.0137582980096322 7.1592913251370218 42.002682515885681 8.1611904799938184 50.3663918687962 7.4387659057974806 11.265911895316092 40.393881843425333 14.457684550434349 92.510397234000266 11.080388274043797 76.761489827185869 7.5311488080769804 9.7440671296790224 8.5892810579389316 7.8731890150811514 21.136400756426156 21.758342233020812 58.821492876391858 9.2875052187591773 15.842201494611801 59.304538528900594 13.232216379605232 5.3488178229890755 67.423938837833703 18.944564022356644 3.9173063226044169 8.1605432395590487 7.9912306896876535 5.213834386318922 11.408972952980546 43.572203464107588
leaf_count=29 112 14 80 450 20 71 205 71 39 65 70 304 17 242 61 26 44 130 21 223 17 34 218 86 251 41 221 27 37 33 24 92 128 155 57 65 335 45 28 201 118 12 56 37 19 59 268
internal_value=0 -0.00440412 -0.00673745 -0.0173913 -0.00182548 0.0141814 -0.00525529 0.00905466 0.000880392 -0.0124423 0.00675655 -0.0257127 -0.00670157 -0.00771439 -0.00937591 -0.0294031 -0.0153723 0.00799561 0.00114777 0.00540362 -0.0122107 0.0181734 -0.00673479 -0.000524642 0.0241659 0.0220031 -0.021542 0.0162764 0.0183508 -0.00348802 -0.0173298 0.00129053 -0.00884579 0.0250675 0.00552522 0.0182899 -0.00547094 0.00797566 0.0102882 0.0200925 -0.00860832 0.000966488 0.00555251 -0.00905536 0.00257973 0.00749577 0.00350824
internal_weight=1225.2 934.848 847.356 267.288 580.068 290.355 441.127 138.941 237.917 203.21 166.627 149.996 24.4502 107.689 39.0719 125.545 65.9978 130.228 78.4808 70.3196 19.9532 87.4923 117.292 76.8985 123.727 76.2264 88.0411 99.8692 51.7467 16.1204 31.3221 113.146 42.8947 69.9019 16.4468 53.4813 115.169 29.0744 31.2167 83.7488 98.3182 39.0136 35.0963 16.1518 11.2796 70.2514 58.8424
internal_count=4958 3769 3525 1181 2344 1189 1907 437 1015 892 798 427 97 548 105 330 306 467 300 279 56 244 754 536 391 210 269 332 167 60 85 617 220 196 101 181 623 110 140 272 558 223 211 93 48 397 338
is_linear=0
shrinkage=0.02


Tree=5
num_leaves=48
num_cat=0
split_feature=142 126 91 127 1 101 119 105 125 146 99 80 108 142 111 112 132 99 101 23 99 142 36 1 127 101 132 13 92 125 88 62 107 113 17 44 134 59 17 144 102 144 135 95 5 142 5
split_gain=164.424 128.459 70.8412 68.636 45.7761 41.7973 39.7469 57.942 36.0136 32.9059 29.4733 29.026 28.2318 33.7998 26.4126 27.0918 30.0924 26.3661 26.2651 26.107 23.8959 23.4373 23.2264 22.8639 21.6698 23.7563 37.0818 21.2603 20.9882 20.4062 19.161 21.058 18.9977 16.5444 16.1393 20.0198 16.0678 15.0584 14.189 14.1769 13.3633 12.9913 12.9703 12.9135 13.8069 18.3124 14.2099
threshold=0.37576799094676977 0.60227176547050487 0.31256780028343206 0.38816319406032568 -0.29279161989688868 1.3260593414306643 0.43379244208335882 0.85131713747978222 -0.11693476885557173 -0.081399463117122636 0.164461724460125 7.5461451969170366e-27 0.27675105631351476 0.0079146749339997786 0.54711326956748974 0.21397435665130618 -0.13065975159406659 -0.029771486297249791 0.41802948713302618 2.7557578086853032 0.31365461647510534 0.084084078669548049 -0.053153505548834794 0.60772159695625316 0.90205806493759166 0.1972683444619179 0.15259941667318347 0.52882346510887157 0.14539606124162677 -0.097258657217025743 0.25365237891674047 -0.34687472879886622 -0.019799691624939438 -0.24351607263088224 -0.47852176427841181 -0.062610499560832963 0.42563371360301977 -0.056876737624406808 -0.12830325216054914 0.22889495640993121 0.65156513452529918 -0.073476139456033693 0.3514546155929566 0.63159871101379406 1.1800546050071719 0.18239392340183261 0.18945309519767764
decision_type=2 2 2 2 2 2 2 2 2 2 2 2 2 2 2 2 2 2 2 2 2 2 2 2 2 2 2 2 2 2 2 2 2 2 2 2 2 2 2 2 2 2 2 2 2 2 2
left_child=1 2 3 6 29 20 7 8 -1 36 19 12 32 -14 33 16 -16 -6 -19 30 24 -8 -22 40 25 28 -27 -25 37 -2 31 -11 38 -10 -23 -36 42 -5 -12 -18 -3 -34 -4 44 46 -46 -35
right_child=4 23 9 5 17 -7 21 -9 14 10 11 -13 13 -15 15 -17 39 18 -20 -21 22 34 -24 27 -26 26 -28 -29 -30 -31 -32 -33 41 43 35 -37 -38 -39 -40 -41 -42 -43 -44 -45 45 -47 -48
leaf_value=-0.036188561173441568 -0.0036123878968102878 0.024150603569621315 -0.010082680494351346 0.023033801876635226 0.023932864258651692 -0.032045908713730469 -0.03466259889732478 0.02437688685172909 0.021608850326433886 -0.021281325327056989 0.01244220037144834 -0.025651257982343786 -0.027991438217557757 0.0090302486802711825 0.025102989425339652 0.019489088481658489 -0.028673045739153948 0.0061324784889375322 -0.018743130091400037 -0.024335102956210095 0.0057973950841917581 -0.031425794556063938 -0.029108203679357236 -0.013398269599149313 0.02636799991561966 0.01281936253835708 -0.025047226301958748 0.018345892991518242 0.028089817123903457 0.024623999806516129 0.021115140521972105 0.012415566163820493 0.033672665830254307 -0.011529867587031674 -0.020739220774495394 0.020964450355449506 0.0066882371104812315 -0.024817727117168027 -0.028769153151232178 0.00047114914570728003 -0.0035918465374008847 0.0096062952924071254 -0.041093786337698265 -0.032201257356065591 -0.014850001210532333 0.028844886521131551 -0.023435868701307018
leaf_weight=26.660803324077278 11.144940519705413 72.860531583195552 10.120865647681063 4.297707315068692 27.445655121235177 13.835379995405672 57.867297402233817 16.543907133862376 4.7447901915293178 10.269889729795976 5.6571202292107046 18.391505700536072 22.473322155885398 17.462163710035384 7.8261366724036625 19.347780835814774 19.673678954597566 113.62733921734616 19.899018670897931 7.3848839160054913 15.804535239469262 11.344171419739725 14.592233234085141 17.470560712274164 22.848496280377731 20.732093100436032 20.518384699011222 16.218519016634673 21.840499716345221 116.38123063137755 63.51700940541923 26.272478675935417 11.463943476963321 108.13273505857796 9.7336946493014711 8.6432641418650729 7.5868051908910266 6.582523691467939 7.9569158256053907 9.9890279821120185 7.5948588754981747 42.06647120625712 11.870658874511717 17.87277794291731 9.0037677213549596 6.5974862426519385 64.46308767516166
leaf_count=80 35 264 50 25 78 19 117 46 32 42 28 59 84 113 40 64 61 618 86 17 103 28 54 82 73 79 95 70 97 379 202 138 44 665 39 30 25 37 36 49 44 206 28 58 33 24 230
internal_value=2.97997e-05 -0.00411591 -0.00694232 -0.0110885 0.0131965 0.000894363 -0.0153326 -0.0119703 -0.0140207 0.00157583 0.00410387 -0.00247307 0.00150868 -0.0117873 -0.0118024 0.00028041 -0.0096192 0.00609399 0.00241223 0.0117912 0.00449581 -0.0272402 -0.0109468 0.0157283 0.00935752 0.00407549 -0.00599915 0.00185883 0.0167967 0.022148 0.0144783 0.0029019 0.00943449 -0.0150641 -0.0127213 -0.00106674 -0.018271 -0.00580591 -0.0115883 -0.0188407 0.0215187 0.0148056 -0.0269226 -0.0159184 -0.0143586 0.003597 -0.015988
internal_weight=1204.63 916.135 801.99 539.496 288.498 141.052 398.444 310.856 294.312 262.494 232.916 125.471 107.08 39.9355 267.651 56.8366 37.4888 160.972 133.526 107.444 127.216 87.5884 30.3968 114.144 96.8197 73.9712 41.2505 33.6891 32.7207 127.526 100.059 36.5424 67.1445 210.815 29.7211 18.377 29.5783 10.8802 13.614 29.6627 80.4554 53.5304 21.9915 206.07 188.197 15.6013 172.596
internal_count=4906 3710 3250 2178 1196 582 1596 1382 1336 1072 969 570 511 197 1256 214 150 782 704 399 563 214 157 460 406 333 174 152 159 414 382 180 314 1042 97 69 103 62 64 110 308 250 78 1010 952 57 895
is_linear=0
shrinkage=0.02


Tree=6
num_leaves=48
num_cat=0
split_feature=142 143 87 138 142 91 112 132 99 59 105 143 128 2 8 124 105 138 99 94 60 113 142 138 112 79 141 45 117 57 144 39 57 135 2 111 143 121 99 65 117 66 87 108 8 37 128
split_gain=156.754 125.295 120.596 72.3189 48.2772 42.6728 38.4061 37.9011 38.4153 41.5797 35.7704 35.1916 32.6196 29.7468 25.641 25.545 26.4828 24.0607 23.3201 25.7988 23.0805 23.07 22.4072 20.5935 20.3591 19.8613 22.6774 18.6737 17.2485 17.088 17.0813 23.0575 16.8784 16.589 16.3796 16.315 15.689 20.0621 15.2372 18.3845 15.1337 14.2396 14.0305 13.784 13.7602 13.4711 13.4124
threshold=0.45430314540863043 0.62838292121887218 0.52120909094810497 0.40305453538894659 0.18239392340183261 0.37249523401260382 0.94700747728347789 1.316488564014435 0.53693366050720226 1.0223628878593447 0.40627560019493109 0.20003944635391238 0.60064920783042919 -0.25148835778236384 0.16122118383646014 0.25141616165637976 0.4935744851827622 0.33168612420558935 0.84373143315315258 0.27037373185157781 1.3936726450920107 0.14477612078189853 0.091797962784767165 0.073323842138052001 0.83114460110664379 -0.066571887582540498 -0.11214476078748702 0.65515580773353588 0.49234351515769964 -0.13185416907072064 0.32932703197002416 0.23288293182849887 0.021119912154972557 0.96835660934448253 -0.87746772170066822 0.51405635476112377 0.29261460900306707 0.88867488503456127 0.29821473360061651 0.07894307374954225 0.4090233594179154 -0.85461527109146107 0.24036011844873431 0.49189111590385443 0.86027911305427562 0.88939976692199718 -0.040339916944503777
decision_type=2 2 2 2 2 2 2 2 2 2 2 2 2 2 2 2 2 2 2 2 2 2 2 2 2 2 2 2 2 2 2 2 2 2 2 2 2 2 2 2 2 2 2 2 2 2 2
left_child=1 2 3 4 6 15 11 8 9 36 14 18 -3 27 -2 16 29 32 19 23 -21 -10 40 42 38 35 -27 -6 41 -5 31 -29 -14 -28 -16 45 -4 44 39 -15 -11 -7 43 -1 46 -13 -38
right_child=10 12 7 5 13 28 -8 -9 21 22 -12 25 17 24 34 -17 -18 -19 -20 20 -22 -23 -24 -25 -26 26 33 30 -30 -31 -32 -33 -34 -35 -36 -37 37 -39 -40 -41 -42 -43 -44 -45 -46 -47 -48
leaf_value=-0.018638553292731709 0.018255110560615951 -0.025780019145554806 0.025621370931711109 0.0024032019718374271 0.023804148127247834 0.026854428763260427 -0.030861976670217714 -0.018975966587237696 -0.030395543041866833 0.003728941204097092 0.025604126252586127 -0.014694254636748068 0.020235376740074851 0.018298432884376232 -0.034267824165897236 -0.026427769890859262 0.019437267818615513 -0.03319182122543135 -0.037456362799272301 0.022199290302103106 -0.025809445688570378 0.011227446798102444 0.026046740873889251 -0.010428582704492066 -0.033121511630592994 0.020586157933882236 -0.025624117675106032 0.015685660238827823 -0.024460550849515678 -0.020691687560019986 0.033077438161941662 -0.028210812584359434 -0.014555033341924595 0.005385173797445901 0.0029767253277392198 0.02381532508738737 -0.0074372173217178462 -0.023206407138594069 -0.0065071022580282358 -0.0044711619833377736 -0.03054200746738904 0.00038528296964573022 0.024334023416444656 0.017429967488472902 -0.014872743070972354 0.013880441538654618 0.025205570125651357
leaf_weight=9.1023241705261189 59.707191501976922 107.67930703959428 110.87623020110186 16.83333570882678 54.386752597521991 11.055951444432138 21.680796509608626 14.246872462797908 11.254489335464315 9.1028703134506994 89.683341077528894 24.352258977247402 14.992383059347054 37.043856077594683 5.1038599591702214 85.796699088998139 10.133305675350128 7.717114162631332 5.1280319262295952 41.872560356510803 4.3682672623544923 9.9899550531990808 6.8598240464925757 42.959233642672189 6.5014274716377249 5.4801834709942332 53.608374156057835 9.4903316497802788 8.031494954164371 52.530729682184756 5.6835271471645674 9.5335005000233632 8.7903239512816054 7.8419902622699729 56.451988771208562 8.6287428713403624 5.8209952311590305 5.6425403766334048 38.521240027621388 22.842160606058314 11.66291995719075 30.640886199660599 15.563738044816999 7.833628596039488 4.8834441609214982 8.9691040473990125 34.400754313217476
leaf_count=64 283 332 322 108 180 30 32 23 35 33 272 156 42 197 16 293 28 21 9 194 19 30 23 242 16 32 201 44 32 259 16 29 25 17 289 44 28 20 243 127 43 181 66 50 18 51 115
internal_value=0.000330903 -0.00291316 -0.000126185 -0.00445672 0.000174747 -0.0139666 -0.00541504 0.012516 0.0146562 0.0175207 0.016024 -0.0030641 -0.0205442 0.0079987 0.00892281 -0.0188529 -0.0106537 -0.00260184 0.00408986 0.00586336 0.0176194 -0.0107954 -0.0051174 -0.00133435 0.00100444 -0.0114045 -0.0181635 0.0172566 0.00225783 -0.0150749 0.00278456 -0.00627624 0.00733098 -0.0216494 -0.000120454 -0.000588017 0.0213967 0.0121307 0.00328486 0.00960032 -0.0154981 0.00745131 0.0106536 -0.00189419 0.0165942 -0.00696357 0.0204532
internal_weight=1231.28 1020.33 881.155 656.414 441.392 215.022 257.389 224.741 210.494 189.25 210.946 235.708 139.179 184.003 121.263 165.294 79.4974 31.4998 126.828 121.7 46.2408 21.2444 27.6256 75.4589 104.909 108.881 66.9305 79.0941 49.7283 69.3641 24.7074 19.0238 23.7827 61.4504 61.5558 41.9501 161.624 50.7477 98.4073 59.886 20.7658 41.6968 32.4997 16.936 45.1052 33.3214 40.2217
internal_count=4930 4070 3650 2960 2029 931 1177 690 667 602 860 1145 420 852 588 688 395 88 644 635 213 65 99 422 583 501 250 269 243 367 89 73 67 218 305 251 503 181 567 324 76 211 180 114 161 207 143
is_linear=0
shrinkage=0.02


Tree=7
num_leaves=48
num_cat=0
split_feature=143 138 87 101 127 126 145 88 143 88 143 149 101 50 104 128 126 91 146 97 113 42 91 90 75 96 37 126 73 74 36 0 117 9 73 42 116 108 138 37 147 26 121 138 10 107 145
split_gain=146.918 116.183 71.8137 53.57 51.0314 41.2008 39.3857 33.2279 31.3897 33.1842 31.1845 30.5594 30.3319 28.472 27.4432 22.9243 21.9567 21.6097 20.9968 21.0551 20.207 23.2186 19.7385 19.6083 19.5024 19.3982 18.5114 17.686 17.3613 17.1947 16.8354 16.0059 15.9009 15.7143 17.7296 15.4622 15.1962 15.1372 19.9059 21.3922 15.0341 14.8466 14.6047 19.9552 14.5517 14.7056 14.5085
threshold=0.57323041558265697 0.54195228219032299 0.79260876774787914 1.1694474816322329 0.30433012545108801 0.51964214444160473 0.41175343096256262 0.2716043889522553 0.16153717041015628 0.54612165689468395 0.026338109746575359 0.41630522906780248 0.3474958091974259 -0.51973295211791981 -0.22343070805072782 0.10525552183389665 0.16571186482906344 0.51756921410560619 0.14679552614688876 -0.021911122836172577 0.36744984984397894 -0.63367655873298634 0.25607380270957952 0.0088920034468173998 0.2486689165234566 0.22570098191499713 2.0655106306076054 0.48590967059135443 -0.10001647099852561 0.7468162775039674 -0.38608601689338679 0.59431505203247081 0.52726858854293834 0.4384510219097138 0.068801410496234908 -0.73286610841751088 0.23550230264663699 0.34507405757904058 -0.11030048877000807 1.3360313177108767 0.096373409032821669 0.54536652565002453 0.13210159540176394 0.1898206099867821 -0.37379452586174006 -0.003140886663459241 0.096520707011222853
decision_type=2 2 2 2 2 2 2 2 2 2 2 2 2 2 2 2 2 2 2 2 2 2 2 2 2 2 2 2 2 2 2 2 2 2 2 2 2 2 2 2 2 2 2 2 2 2 2
left_child=1 2 3 4 6 14 8 10 9 18 -6 27 44 -14 -3 16 -10 32 19 -1 21 -13 35 -24 42 -9 -20 -2 -26 -21 -15 33 36 -25 -35 -16 -8 -4 -39 -40 -30 -42 -17 -44 45 -12 -18
right_child=11 5 37 -5 7 -7 17 25 15 -11 12 20 13 30 22 24 46 -19 26 29 -22 -23 23 31 28 -27 -28 -29 40 -31 -32 -33 -34 34 -36 -37 -38 38 39 -41 41 -43 43 -45 -46 -47 -48
leaf_value=-0.021803874172403228 -0.023934692509283206 0.028911974315647907 0.027449750710323139 -0.027209608474591428 0.015758492964431641 0.016553185921826429 -0.015820385043811905 0.0041601356526821181 -0.020490813239562703 0.029557012164309962 -0.031078800866250686 -0.019677595252711677 0.01672389390956994 0.0079739781779930175 -0.0030982600600187485 0.023750415201110049 0.0082976890830792037 0.025460839934836006 0.013978033880574446 0.010258953168675889 -0.015686956870959268 0.022002571208844333 0.016000865082346733 -0.028064953180078893 -0.023885125528925112 0.026522475030676205 -0.023820834501489703 -0.0036942892748050831 0.022102209848211759 -0.024342912798222191 -0.029969806676322208 0.014974176271645875 -0.033907314900880989 -0.017324769037569042 0.024303184535646144 -0.022421289850002638 0.00679331962783279 0.028498180085716918 0.019761290355886928 -0.023255856226634335 0.0057080414495492829 -0.032031153203836239 0.019527648113112948 -0.014278162753673279 0.021422416341699609 0.0084384219072863448 -0.01201976618818883
leaf_weight=16.916504604741931 110.76133708967245 6.0279035363346329 73.51664263708517 20.243891451507807 85.390219902386889 21.228365040849894 43.686813558335416 19.552001324016601 36.657445671036839 29.607006528414786 5.144433710724118 7.4670376004651215 9.3079687645658833 5.6588270254433182 20.174371998524293 27.067619899986312 31.863598780240864 5.9085405790247014 97.479780858498998 35.092598228948191 23.54361021798104 18.35885944031179 13.706972108222542 21.07251265225932 13.05874216603115 77.645668613258749 5.4102824963629237 20.622583217918873 11.097859197994696 6.8073509465903035 25.427264899946749 7.7351169651374212 13.27465916238725 11.440170784480872 6.3000604119151822 96.295473483856767 16.218319924664684 14.563555132830514 8.779142062179746 9.6471787169575673 11.957658061757686 6.3180886954069129 14.317733197938653 13.522840699763035 22.379571267636493 13.616824349388478 25.068415652844124
leaf_count=72 359 18 171 24 400 91 197 91 160 96 23 23 23 24 97 131 154 28 513 212 65 70 70 89 58 200 14 85 56 29 79 43 31 51 34 338 85 39 28 39 48 20 63 58 139 92 151
internal_value=0.000930577 0.00378297 0.00702894 0.00483225 0.00572957 -0.00977176 0.00171297 0.0127398 0.0043732 0.0100983 0.00731408 -0.0157275 -0.0015216 -0.0138345 -0.0128388 -0.00135928 -0.00842886 -0.0111262 0.00652134 -0.00299555 -0.00228628 0.00989821 -0.0142763 -0.00495551 0.00542844 0.0220389 0.0119701 -0.0207679 -0.00473488 0.00459115 -0.0230288 -0.0111585 -0.0141093 -0.0164049 -0.00245853 -0.0190856 -0.00968086 0.02239 0.0110599 -0.00270838 0.00377096 -0.00733596 0.0132979 0.00307533 0.0105457 -0.00239805 -0.00063368
internal_weight=1236.94 1056.19 852.205 745.699 725.455 203.981 461.332 264.123 382.244 191.314 166.925 180.753 81.5349 40.3941 182.753 190.93 93.5895 79.0883 161.707 58.8165 49.3695 25.8259 176.725 60.2548 97.3405 97.1977 102.89 131.384 42.4323 41.8999 31.0861 46.5479 73.1798 38.8127 17.7402 116.47 59.9051 106.507 32.9899 18.4263 29.3736 18.2757 54.9082 27.8406 41.1408 18.7613 56.932
internal_count=4981 4379 3548 3271 3247 831 2176 1071 1835 936 780 602 380 126 740 899 465 341 840 313 158 93 722 287 434 291 527 444 182 241 103 217 313 174 85 435 282 277 106 67 124 68 252 121 254 115 305
is_linear=0
shrinkage=0.02


Tree=8
num_leaves=48
num_cat=0
split_feature=142 87 99 98 145 142 143 126 130 126 146 65 143 1 85 142 87 92 128 134 87 68 19 108 3 11 0 16 100 102 120 137 146 119 133 117 99 126 86 117 14 142 120 128 44 51 139
split_gain=153.39 120.644 68.6464 62.5234 44.971 39.1979 39.0407 35.1628 34.179 31.3736 29.95 27.03 25.7515 25.4591 25.2248 24.4444 32.6744 30.351 24.0128 23.2928 29.7541 23.1976 22.5325 22.0775 22.099 21.9208 21.7652 21.4964 19.6273 19.082 18.9847 21.9283 18.7829 17.4651 17.0745 16.9219 15.9337 15.4603 15.1986 15.0408 14.86 14.7784 16.7854 14.2898 14.0186 14.0023 19.291
threshold=0.18239392340183261 0.79260876774787914 0.1562246307730675 0.15488503873348239 0.74243354797363292 0.62377983331680309 0.21520502120256427 0.58792284131050121 0.39953304827213293 0.47251933813095098 0.56183555722236644 -0.091326300054788576 0.71713826060295116 0.15321519970893863 7.4615882049433607e-12 0.47239367663860327 0.45001950860023504 0.29868052899837499 0.11672479286789895 0.3338634073734284 0.16844637691974643 0.47164924442768102 -0.27032274007797236 0.28021346032619482 -0.77775838971137989 0.28646995127201086 0.98409387469291698 -1.4417241215705869 0.49634629487991339 0.53094714879989635 0.53322952985763561 0.65542522072792064 0.35093286633491522 0.066937480121850981 0.44146713614463812 -0.01600664388388395 0.2142562419176102 0.42535626888275152 0.53449767827987682 0.045661194249987609 -0.049897152930498116 0.12774598598480227 0.1592485457658768 0.7381398379802705 -0.21449238061904904 0.31831258535385137 0.40593901276588445
decision_type=2 2 2 2 2 2 2 2 2 2 2 2 2 2 2 2 2 2 2 2 2 2 2 2 2 2 2 2 2 2 2 2 2 2 2 2 2 2 2 2 2 2 2 2 2 2 2
left_child=1 3 15 6 23 12 9 8 10 19 21 14 13 25 -10 16 17 30 45 27 -21 41 -13 -3 32 33 -17 -1 -12 -24 31 -2 -25 -4 -29 -23 -20 -38 39 -15 -27 -5 -43 -6 -11 -8 -47
right_child=2 4 5 7 43 -7 18 -9 11 44 28 22 -14 38 -16 26 -18 -19 36 20 -22 35 29 24 -26 40 -28 34 -30 -31 -32 -33 -34 -35 -36 -37 37 -39 -40 -41 -42 42 -44 -45 -46 46 -48
leaf_value=0.024489005695136627 0.0074024335716268872 0.027656050227445345 0.0047737957537618333 -0.031578788244126521 -0.033972711598702146 0.016400418775630535 -0.021713986532783919 0.0068454446327018536 -0.033510663860119728 0.0033106773452391282 0.01627698947475463 -0.020054023262414056 -0.026235006828569687 -0.00067324551995711951 0.0085386885714358544 0.029854153261917166 0.027537857336031861 0.019153242269506376 0.0093362946441771649 -0.01454476542272562 0.027665938967587705 0.012621261289127364 0.025649198242315197 -0.020064664441529538 0.024780705037863841 0.030537554563875441 0.00642224595649979 -0.0044238641611582608 -0.027178801506693114 -0.017497438935799355 -0.02286537626776065 -0.024694832804302531 0.017379289080470799 -0.014876821956373585 -0.027379493569661156 -0.018601139661431891 -0.01954068694819407 0.019370666182698962 0.017543975270433047 -0.01857649838132807 0.0059295837605504208 0.011628660719848825 -0.02921745925859567 0.0019350116947954039 0.032482326573901085 0.012269262013689851 -0.027782647849689163
leaf_weight=8.0282053556293231 68.536326814442873 50.277994560776278 70.225385143654421 122.15226690564305 8.8116153348237294 55.079859239514917 66.49350281333318 23.318862320389599 18.444470650050793 10.129617892904209 12.207232954911889 9.2639958744402957 16.687941193580627 30.976491092471406 8.1793124023824912 64.393397175241262 37.817549836356193 49.651470369426534 30.33289424108807 9.7680573905818182 20.747373139252886 8.621329387300646 19.22403105348349 13.654665958136322 16.991019731387496 18.450710260309279 21.228809245396405 54.653289104113355 6.2378195947967461 5.1411058995872727 12.746898754499851 9.6626523947343212 8.7313194575253856 24.311207139864564 17.01548186223954 34.360097968019545 20.97110873635393 5.0022658668458453 7.8131212855223557 48.066645976621658 21.237493922002614 7.1602225359529283 9.0085464380681497 8.7614092119038087 19.311421133577824 12.766053951345386 7.6423855172470203
leaf_count=48 304 126 356 273 22 255 307 105 54 69 36 52 60 210 34 178 122 177 145 55 84 47 85 43 46 63 101 296 17 16 65 29 33 107 60 141 96 27 55 237 93 26 37 21 72 59 27
internal_value=0.000109217 -0.00631171 0.00787533 -0.00999676 0.0131322 0.00120353 -0.0033398 -0.0166377 -0.0187486 0.00417861 -0.0227322 -0.0055179 -0.00231538 -0.000499801 -0.0205631 0.0152697 0.0110385 0.00658521 -0.0106775 -0.000715016 0.0141198 -0.025202 0.00637633 0.0188707 0.00760702 0.00495443 0.0240634 -0.00641299 0.00149313 0.016487 -0.000272018 0.00341031 -0.00540945 -0.000274214 -0.00990318 -0.0123078 -0.000483309 -0.0119854 -0.0089381 -0.0115778 0.0174188 -0.0291956 -0.0110873 -0.0160587 0.0225019 -0.017267 -0.00271141
internal_weight=1230.29 673.409 556.886 566.181 107.228 292.849 282.862 283.319 260 139.653 199.748 60.2529 237.769 221.081 26.6238 264.037 178.415 140.597 143.208 110.212 30.5154 181.302 33.6291 89.655 39.377 134.225 85.6222 79.697 18.4451 24.3651 90.9459 78.199 22.386 94.5366 71.6688 42.9814 56.3063 25.9734 86.8563 79.0431 39.6882 138.321 16.1688 17.573 29.441 86.9019 20.4084
internal_count=4971 2559 2412 2268 291 1436 1345 923 818 684 577 241 1181 1121 88 976 697 575 661 543 139 524 153 248 122 619 279 404 53 101 398 333 76 463 356 188 268 123 502 447 156 336 63 43 141 393 86
is_linear=0
shrinkage=0.02


Tree=9
num_leaves=48
num_cat=0
split_feature=142 118 99 134 111 126 96 118 95 130 90 66 130 104 37 101 105 91 71 101 108 48 118 42 37 143 109 133 121 65 143 66 91 59 82 65 123 12 103 41 124 19 32 34 137 126 78
split_gain=141.577 111.271 70.2178 69.6417 66.0405 51.807 36.1289 38.7381 30.8846 30.4668 34.7518 27.7584 24.6476 26.608 25.0361 23.9111 21.6569 20.9625 20.6249 19.5634 19.4866 19.3253 21.259 20.5078 21.6428 18.6982 18.985 20.1571 18.0317 17.6579 17.8026 20.9116 16.8391 16.294 17.8056 16.408 15.8345 15.6572 14.6373 21.4952 19.558 14.3214 14.2717 13.5831 13.5274 12.7656 12.6464
threshold=0.18239392340183261 0.54159271717071544 0.12244458496570589 0.33582241833209997 0.94346794486045849 0.46148717403411871 0.88916459679603588 0.26215156912803655 0.43042978644371038 0.40982121229171758 0.37453760206699377 0.036299983039498336 0.084463708102703108 0.34247466921806341 -0.41819116473197931 0.75370788574218761 0.29164215922355657 0.41325375437736517 0.16517227888107303 0.38460732996463781 0.19620165973901751 -0.077677082270383821 0.10915010049939157 -0.52512824535369862 0.62654870748519909 0.58136785030365001 0.16545757651329043 0.54659658670425426 0.58629441261291515 0.07894307374954225 0.20791264623403552 -0.2404440566897392 0.46146352589130407 0.51311746239662182 1.2094391785809346e-12 0.39781115949153906 0.4247086793184281 0.82023030519485485 0.11624662205576898 0.54331380128860485 0.089386526495218291 0.49884003400802618 0.57261896133422863 0.88346037268638622 -0.052234733477234833 0.098442219197750105 0.45438879728317266
decision_type=2 2 2 2 2 2 2 2 2 2 2 2 2 2 2 2 2 2 2 2 2 2 2 2 2 2 2 2 2 2 2 2 2 2 2 2 2 2 2 2 2 2 2 2 2 2 2
left_child=1 3 11 5 12 9 7 16 21 10 29 25 -3 -14 -15 -13 18 28 32 38 -11 -5 -23 -24 -25 26 27 42 44 30 31 -1 46 34 -31 -35 -10 -16 43 40 45 -18 -2 -9 -7 -40 -4
right_child=2 4 6 8 -6 17 -8 19 36 20 -12 15 13 14 37 -17 41 -19 -20 -21 -22 22 23 24 -26 -27 -28 -29 -30 33 -32 -33 -34 35 -36 -37 -38 -39 39 -41 -42 -43 -44 -45 -46 -47 -48
leaf_value=0.011350495683103102 0.0260671123476282 -0.032155984980055903 0.0054110414411291455 0.021784901625790668 0.020604169566142552 -0.02560298628994543 0.025963188767589376 0.016759686501123333 -0.022023009375663136 0.019724834771248364 -0.027763351590227244 0.0099954531886631524 -0.026782132703266948 -0.023290485066440408 0.021287666107722904 -0.027578007834909452 0.022104841370004551 0.020145261280689577 -0.018531345975144213 -0.022837554222671915 -0.013175684211591357 0.016432162407760527 -0.023490462939458449 -0.011892595040825123 0.018651068207138452 -0.0091557756634204953 0.028782708497231718 -0.01882488619342379 -0.029836225990688886 -0.01423187155936317 -0.023799445423098271 -0.017633897844320404 0.028673640438326656 0.0092871997304116004 0.01187678983259125 -0.023567921480436373 0.013925145825727075 -0.017639531027946173 -0.01485821746308956 0.018068796125966066 -0.025646382243963095 -0.0031976220499580718 0.0038691905988791258 -0.023553999221079636 0.010063248966646189 0.018137085171017257 -0.011987848976370121
leaf_weight=16.773328069830313 32.273972497554496 76.196955775842071 76.398938344442286 53.186424132902175 14.429017269983886 4.941437409259378 21.980623696930707 18.101324419490997 17.738283413928006 19.295901713892821 53.735568925738335 81.695798637345433 42.439385597594082 14.652748968452213 15.237667836481707 7.3274388685822478 38.817607684293762 31.791093332692981 18.762701051775366 32.723557573743165 11.392086141044272 47.371143497759476 13.283707379829137 16.339683567173779 21.288075955584645 7.7098219774197778 83.518350678030401 6.639313847757875 7.3181372829712918 14.591874074656515 47.428826559771551 24.274078905349597 10.108651455957441 8.4106568065471965 36.292207559105009 21.345514978980646 6.6905067861080161 5.594901241362094 9.9393222937360424 9.1787435710430128 28.628465371206403 11.522946829907594 18.26723125600256 4.0346422009170047 28.428937421645969 8.7878240654245001 21.317955598467961
leaf_count=77 124 152 518 181 23 26 64 96 58 100 140 358 134 36 60 17 150 140 75 115 88 197 48 64 59 33 211 21 36 81 194 121 57 49 164 94 16 16 49 39 104 53 67 18 152 42 142
internal_value=0 -0.00616157 0.00754386 -0.00143725 -0.0202193 -0.00691078 0.00127587 -0.000606906 0.0087011 -0.0111747 -0.0137488 0.0157294 -0.0240532 -0.0161017 -0.00328036 0.00687784 0.00520588 0.00798853 0.000783124 -0.00984661 0.00747731 0.01207 0.00679407 -0.00216149 0.0053629 0.0210282 0.0226919 0.0137608 -0.0014984 -0.00928298 -0.0154524 -0.00576618 0.00416033 -0.00249627 0.00436343 -0.0142478 -0.0121284 0.0107681 -0.00441915 -0.00982388 -0.0152646 0.0162958 0.0180756 0.00933026 0.00472152 0.000578834 0.00160087
internal_weight=1218.2 670.468 547.735 501.917 168.551 326.02 310.303 288.323 175.898 253.54 222.852 237.432 154.122 77.9247 35.4853 89.0232 176.929 72.4796 126.588 111.394 30.688 151.469 98.2826 50.9115 37.6278 148.409 140.699 57.1805 40.6885 169.116 88.4762 41.0474 107.826 80.6403 50.8841 29.7562 24.4288 20.8326 78.6703 56.5344 47.3556 50.3406 50.5412 22.136 33.3704 18.7271 97.7169
internal_count=4859 2506 2353 2085 421 1462 1522 1458 623 1108 920 831 398 246 112 375 995 354 792 463 188 549 368 171 123 456 423 212 214 780 392 198 717 388 245 143 74 76 348 234 195 203 191 114 178 91 660
is_linear=0
shrinkage=0.02


Tree=10
num_leaves=48
num_cat=0
split_feature=126 96 101 105 130 136 91 146 102 40 136 87 87 87 11 90 130 66 133 87 99 27 88 130 4 77 23 115 69 106 36 124 123 130 87 88 148 45 88 75 3 99 110 80 113 99 31
split_gain=96.151 83.2279 68.396 47.9077 47.7867 67.0278 47.1562 37.6476 34.3419 34.2853 33.0336 29.3709 26.3592 24.1185 29.2591 23.9856 23.5009 22.7222 26.9953 21.8013 20.7503 19.8854 19.874 19.8157 20.1879 19.0387 23.1364 19.3687 18.9374 18.79 18.3301 17.9529 20.7851 16.9879 26.3471 18.6507 16.7826 16.7657 16.1882 15.9819 15.3074 15.2514 16.8995 15.2303 16.2803 14.1844 16.3965
threshold=0.67158788442611705 0.36348578333854681 0.77147310972213756 0.55926302075386058 0.52809771895408641 0.56618934869766246 0.11111068725585939 0.65761196613311779 0.29976531863212591 -0.1388883367180824 0.61123764514923107 0.70995292067527782 0.31712514162063604 0.50132024288177501 0.60920077562332164 0.95996680855751049 0.31122820079326635 1.1609017848968508 0.059282008558511741 0.54438292980194103 0.30684050917625433 -0.20294144749641416 0.18708723038434985 0.29562836885452276 -0.1225503198802471 0.73732453584671032 -0.30849070847034449 0.29754938185215002 -1.168684124946594 0.31345263123512274 0.96307358145713817 0.16707948595285418 0.25641624629497534 -0.065757527947425828 0.52120909094810497 -0.036340827122330659 -0.023041731677949425 1.3340405225753786 0.061422958970069892 0.51776334643363964 0.03568521514534951 -0.041110025718808167 0.37478105723857885 0.99354976415634166 0.20748415589332583 0.57419282197952282 0.3320338129997254
decision_type=2 2 2 2 2 2 2 2 2 2 2 2 2 2 2 2 2 2 2 2 2 2 2 2 2 2 2 2 2 2 2 2 2 2 2 2 2 2 2 2 2 2 2 2 2 2 2
left_child=1 2 3 7 5 6 12 9 15 25 13 -4 16 23 -15 20 31 -2 -19 -10 -5 -20 30 24 38 26 27 -1 -21 -16 45 32 -3 -28 35 -35 -9 -24 -11 -14 -22 -6 -43 44 -7 46 -8
right_child=17 4 11 8 41 43 22 36 19 10 -12 -13 39 14 29 -17 -18 18 21 28 40 -23 37 -25 -26 -27 33 -29 -30 -31 -32 -33 -34 34 -36 -37 -38 -39 -40 -41 -42 42 -44 -45 -46 -47 -48
leaf_value=0.013010514983505601 0.021326655935339046 -0.026717706054206657 -0.033709506738530993 0.022299938731768863 0.028829364527649972 -0.024235499002715388 0.024441136919483096 -0.014076822868704972 -0.025216983940760919 -0.0074521234016232474 -0.025035847008525951 0.0030191705183265833 0.034222916321788588 0.022304163517468719 -0.017578582497637212 -0.02360872002617009 0.0097861575358283229 -0.035081002874790095 0.025900997357240271 -0.019361659337813562 -0.026968424420432756 -0.01755170311506454 0.021695751798231782 0.0032389657022797746 -0.01450421415200418 -0.031786404788931973 -0.030832255526674006 -0.026970190895894853 0.020541102576389161 0.016610722274210569 -0.028140518886648529 -0.029674485136221472 0.011982503413348885 0.012812301501705956 0.013196148107739163 -0.021598750481595701 0.016837131674655583 -0.0045594806499436166 0.0097491531315580509 -0.0042908414899483641 0.019488809221410962 0.0027464675835335438 0.026281592198152889 -0.034159544010444146 0.018178465136718561 -0.019135634188907992 -0.0026661951840032056
leaf_weight=20.84143057581969 95.338072702754289 10.010734978131952 46.072243129834533 64.357979944907129 36.350154252722859 9.3036283754045126 20.204920649062842 8.5762463323771936 16.74846125789918 70.032095759757794 29.130096813227283 10.666308058425782 8.967098321765663 30.652245324105024 18.679267017403621 5.9510882822796694 15.056323911063371 6.4588905908167389 13.127920772414658 7.5406260602176216 6.5046440816950035 6.1229932839050862 80.106044578831643 79.472617910942063 107.92724901577458 24.997047172859311 26.508330500219017 6.2538358294405034 12.652787941973655 9.7216340010054392 6.5982434554025522 26.962934560142457 12.303754341322927 7.0439356341958037 13.389383625239132 54.958539673127234 37.298360046232119 10.985131464898584 31.743266722769476 8.1583779584616405 4.9355154735967517 31.741952237673104 19.903777197934687 21.338165484368801 5.8368143737316123 6.6499735014513126 15.832720584759953
leaf_count=112 363 44 90 215 68 41 90 36 59 459 105 15 20 97 85 14 62 22 48 22 27 25 253 499 428 66 87 30 38 52 20 63 48 40 52 228 155 39 225 27 20 162 74 34 25 40 87
internal_value=-8.40078e-05 -0.00194851 -0.00568252 -0.00395832 0.00616358 0.00182183 0.00595793 -0.00633878 0.00760785 -0.00784084 -0.00459062 -0.0267907 -0.00613627 -0.00287411 0.0087621 0.0148413 -0.0120144 0.0168289 0.000102343 -0.0083706 0.0178869 0.0120188 0.0129829 -0.00525493 -0.00847869 -0.015795 -0.0126772 0.00371308 0.00558019 -0.0058318 0.00272446 -0.0186988 -0.0053554 -0.0170449 -0.0121667 -0.0176661 0.011027 0.0185178 -0.00207515 0.0158581 -0.00684122 0.0188893 0.0118527 -0.0232773 -0.00781258 0.00754601 0.0125169
internal_weight=1220.01 1098.97 752.655 695.917 346.311 258.315 221.836 577.226 118.691 531.351 377.358 56.7386 81.4592 348.228 59.0531 81.7492 64.3337 121.048 25.7098 36.9419 75.7981 19.2509 140.377 289.175 209.703 153.993 128.995 27.0953 20.1934 28.4009 49.2859 49.2774 22.3145 101.9 75.3919 62.0025 45.8746 91.0912 101.775 17.1255 11.4402 87.9959 51.6457 36.4786 15.1404 42.6876 36.0376
internal_count=4911 4453 3256 3151 1197 893 793 2756 395 2565 1950 105 264 1845 234 276 217 458 95 119 262 73 529 1611 1112 615 549 142 60 137 237 155 92 407 320 268 191 292 684 47 47 304 236 100 66 217 177
is_linear=0
shrinkage=0.02


Tree=11
num_leaves=48
num_cat=0
split_feature=143 105 118 99 101 127 142 91 92 127 146 139 96 91 142 99 103 85 42 102 94 86 44 121 92 139 64 64 148 66 88 99 136 48 134 134 54 111 91 68 125 142 88 128 59 118 46
split_gain=135.353 108.373 84.6845 67.4522 54.3904 43.354 42.6862 44.0365 33.6109 33.2389 30.4224 28.2309 26.6197 26.2759 26.4041 23.8342 23.4363 26.795 22.6475 21.6178 21.0464 20.5733 19.4912 19.2297 19.0834 18.8979 18.2723 18.2503 17.9653 17.5286 17.1838 23.4405 16.8674 22.692 16.3498 15.5821 15.5371 15.1558 15.7137 16.1377 15.1437 15.0521 23.4852 14.7198 13.6867 13.6789 16.8484
threshold=0.67974126338958751 0.83039140701293956 0.2110797315835953 0.29821473360061651 1.0880041718482973 0.38379114866256719 0.35635101795196539 0.35688890516757971 -0.0030271534342318769 0.42722958326339727 0.1690560579299927 0.45501752197742468 0.88916459679603588 0.44472296535968786 0.35635101795196539 0.15849786996841433 0.21931178122758868 1.2755420845354738e-16 0.41513080894947058 0.33733585476875311 0.41791859269142156 -0.20396138727664945 0.62204071879386913 0.11697189137339593 0.32689410448074346 0.48410493135452276 -0.049292415380477898 -1.2621754407882688 -0.10292062535881995 -0.18317679315805432 0.84452155232429515 -0.1306849122047424 0.43485556542873388 -0.031398395076394074 0.58056139945983898 0.029922803863883022 0.92131111025810253 0.71862596273422252 0.12151585146784784 0.2574246227741242 0.22772082686424258 0.084084078669548049 0.30995218455791479 0.51577529311180126 0.52019038796424877 0.13940849900245669 -0.41366654634475702
decision_type=2 2 2 2 2 2 2 2 2 2 2 2 2 2 2 2 2 2 2 2 2 2 2 2 2 2 2 2 2 2 2 2 2 2 2 2 2 2 2 2 2 2 2 2 2 2 2
left_child=1 2 6 4 5 10 7 9 29 22 19 24 16 14 23 -8 17 -5 -19 28 25 -2 26 -12 27 32 37 -7 -4 -3 31 -30 35 -34 45 40 -29 38 39 -1 -9 -23 -43 -18 -10 -28 -47
right_child=21 8 3 12 -6 11 15 20 44 -11 13 -13 -14 -15 -16 -17 43 18 -20 -21 -22 41 -24 -25 -26 -27 34 36 30 -31 -32 -33 33 -35 -36 -37 -38 -39 -40 -41 -42 42 -44 -45 -46 46 -48
leaf_value=-0.02681392509231114 0.0061258064565358908 0.015428071711260019 0.026481633041381399 -0.026901280918691317 -0.038293380347330194 0.030691186888568305 0.02599357402946707 0.011289728112028144 0.02846856459832324 0.011700439248947068 0.015175101933664977 -0.0089494602625642457 0.022994915921315664 0.0264451001343361 0.015919704508341369 0.0084693728591436514 -0.026699526597547322 0.010346147703253929 -0.01611565750780794 -0.028246773053408867 0.025747256963988458 -0.028340846166917802 -0.022014324885432139 -0.018119419890188813 0.029463122073766161 -0.014557246465286456 -0.014651580870719157 0.0070961899406258326 0.024101482026672127 -0.021869416093457963 0.017255204286699192 -0.018062966534474263 -0.034790924883124096 0.012531006165222512 0.021546687485676085 0.017322668556955273 -0.03210068058822519 0.027943111190840059 0.011047418391229965 0.0036954376994592338 -0.026782251155470053 -0.022919224243313149 0.0069969728562321934 0.0049591231500802618 0.0063917474352464185 0.030034613584026114 -0.014342528283005331
leaf_weight=12.867672085762026 11.09272715449333 10.05039404332638 6.0174436308443537 24.344879329670221 14.414620955009012 11.135796267539261 49.237202803138644 10.462620506295936 80.309308210853487 46.928120389347896 8.7773705663857964 19.257531682495028 6.5781624233350149 17.310997952707112 22.765380609314889 84.804923533345573 86.882730306126177 28.829358560964465 23.3725402103737 24.467913087457418 28.915670660557225 68.628895221860148 29.467834175564349 32.072743601398543 33.122782368212938 14.583376516122369 83.040510694030672 24.629355186130855 5.8426692970096985 9.993949653580783 8.2628658898174745 49.277634079568095 7.3822593372315195 8.835345325060187 6.2758825514465562 70.658469677204266 4.7868590038269749 9.0635265086311829 26.576713967486285 14.84590246924199 6.8735090740956357 34.253776865079999 15.032361013349144 6.2286049202084532 13.238228693604468 6.5248730704188347 7.0614776255097222
leaf_count=58 29 18 21 71 21 29 197 45 180 246 47 84 26 56 101 468 287 119 117 76 111 171 94 127 82 95 473 124 21 27 20 203 24 37 25 337 19 38 173 88 36 122 63 19 34 28 44
internal_value=-0.000445243 0.00183435 -0.000302793 -0.00658287 -0.000514998 0.00152205 0.00518476 0.00183744 0.0203255 -0.00340041 -0.00434201 0.0125588 -0.0162885 0.00463392 -0.00130173 0.0149212 -0.0178239 -0.00959483 -0.00148664 -0.0120894 0.0104469 -0.0198194 -0.00702826 -0.0109312 0.0181966 0.00670502 -0.00436025 0.00894459 -0.0063623 -0.00312654 -0.0095146 -0.0135577 0.00969559 -0.00898921 -0.00956389 0.0131538 0.000640154 0.00407689 5.20762e-05 -0.0104571 -0.00378132 -0.0222702 -0.0137766 -0.0245695 0.0253602 -0.0116049 0.00692833
internal_weight=1225.38 1096.38 982.784 458.378 282.142 267.727 524.406 390.364 113.592 242.653 174.795 92.9323 176.236 80.9265 63.6155 134.042 169.658 76.5468 52.2019 93.8685 147.711 129.008 195.724 40.8501 73.6748 118.796 166.257 40.552 69.4006 20.0443 63.3832 55.1203 104.212 16.2176 102.903 87.9946 29.4162 63.3538 54.2903 27.7136 17.3361 117.915 49.2861 93.1113 93.5475 96.6269 13.5864
internal_count=4931 4546 4287 1670 1031 1010 2617 1952 259 1267 672 338 639 331 275 665 613 307 236 341 685 385 1021 174 254 574 927 172 265 45 244 224 479 61 570 418 143 357 319 146 81 356 185 306 214 545 72
is_linear=0
shrinkage=0.02


Tree=12
num_leaves=48
num_cat=0
split_feature=126 118 96 138 132 128 67 130 91 134 124 147 133 66 133 91 86 145 145 97 88 92 66 7 121 141 1 18 140 40 10 31 68 86 85 133 92 36 94 102 14 66 128 137 95 137 120
split_gain=89.4343 77.9068 89.5067 52.6049 56.3192 53.2351 48.9363 45.2507 37.8819 31.8067 31.0525 31.0048 25.963 26.4404 24.7169 24.4316 23.858 22.962 22.7082 23.2785 23.7635 19.0303 18.7188 24.1171 18.5117 18.3698 18.0848 17.2881 17.1341 25.4231 16.7923 15.94 15.4338 15.2753 20.2392 15.0944 16.9086 14.6191 17.38 14.9211 14.4387 14.278 14.1549 13.9338 13.6543 13.2677 13.2439
threshold=0.67158788442611705 0.26215156912803655 0.88916459679603588 0.54872334003448497 0.75313746929168712 0.42592775821685797 1.1992917060852053 0.38017582893371588 0.63596272468566906 0.48947739601135259 0.54635035991668712 0.67045736312866222 0.16321580111980441 1.1609017848968508 -0.157172717154026 -0.056997627019882195 -0.094998225569725023 0.72424161434173595 0.64940044283866893 -0.021911122836172577 0.25114691257476812 0.15948747098445895 -0.30111202597618097 -0.040524773299694054 0.13407970964908603 0.17014823108911517 -1.0682953000068662 -0.61467033624649037 0.85188317298889171 0.73218050599098217 -1.1949957013130186 -0.032767323777079575 0.47164924442768102 0.25712108612060552 1.2697514914505882e-11 -0.011160890106111763 0.25137856602668768 -0.25316379964351649 0.18580061197280887 -0.11588070541620253 1.1866563558578493 -0.057831747457385056 -0.031662328168749802 0.44589844346046453 0.2555659711360932 0.10527491569519044 0.36739629507064825
decision_type=2 2 2 2 2 2 2 2 2 2 2 2 2 2 2 2 2 2 2 2 2 2 2 2 2 2 2 2 2 2 2 2 2 2 2 2 2 2 2 2 2 2 2 2 2 2 2
left_child=1 6 3 4 5 10 7 8 9 18 28 33 13 42 -11 16 -6 -9 19 27 22 25 26 -24 -12 -4 -21 -1 29 35 -28 -25 -5 -7 -35 36 41 44 39 -39 -8 -3 43 -2 -37 -34 -16
right_child=12 2 21 32 15 11 40 17 -10 14 24 -13 -14 -15 46 -17 -18 -19 -20 20 -22 -23 23 31 -26 -27 30 -29 -30 -31 -32 -33 45 34 -36 37 -38 38 -40 -41 -42 -43 -44 -45 -46 -47 -48
leaf_value=0.014851799788221508 0.0095061598267304221 0.013912543466647926 -0.021066347438022683 -0.027589583174697178 0.023018005641235909 0.027448786618601156 0.025802447992690693 0.016137167496618789 0.016558607110010892 -0.035704181372425071 0.0065657020375528624 -0.014632704168377973 0.024867301676848065 -0.020995661305068795 0.019214917926054776 -0.029171005506334322 -0.023477438404538708 -0.020962537479781468 -0.024351705013697496 -0.017619739801694408 0.01014825714367738 0.022183043457294761 -0.017143520104267455 0.0077570863097491081 -0.029392551768142042 0.014721508318226814 -0.01819412825802039 -0.019491881877845896 -0.030487571031322328 0.021971641619735555 0.013107179169078984 -0.010828284361833819 0.0078804388262787954 0.02183831580726053 -0.015438451838319265 0.011639360392845998 0.025851988344432569 0.031730881078795674 -0.023752839352815688 -0.0088149772179116331 -0.002511070190623538 -0.021640442446461631 0.022656486545420136 -0.032004829358354379 -0.024615346874610085 -0.02555714833496725 -0.013029785384398552
leaf_weight=6.5359106762334696 13.080267108976843 8.3948617167770898 9.8594697266817111 81.202451268676668 8.0969094245228934 32.720569536555558 44.6711755245924 91.253743685083464 41.747548711718991 4.0748015597928307 6.7682008747942737 13.959785084240137 64.896098331548274 11.326245014090089 41.742710452992469 55.675901683978736 9.5764205021550861 7.1341971382498732 24.039553148206323 12.74271220108494 53.862931962008588 41.580528385937214 70.749823068268597 39.933308522333391 35.147993103833869 13.572926216758786 7.910441122512565 52.04579798434861 9.0858210362493974 15.384557671844957 48.631835441337898 34.223042713827454 10.255726940929891 13.963493447750809 9.8993488377891463 19.072583084227521 11.574921849416567 4.2015175744891158 35.65257996856235 24.65541706036311 8.5026790797710401 9.6352400574833155 25.745952674653381 4.2402952536940566 5.2504610139876595 8.7123349392786604 5.7290274603292337
leaf_count=34 66 39 23 234 26 93 118 509 162 8 24 34 250 42 172 158 37 24 82 44 272 75 407 255 92 42 33 206 20 51 235 200 43 44 44 105 55 16 139 129 19 61 85 15 34 31 23
internal_value=-0.00011163 -0.0019129 -0.00778594 -0.0111022 -0.00722915 -0.0027862 0.00295643 0.00115846 -0.00155946 -0.00344428 -0.00843051 0.0119833 0.0163244 0.00610002 0.0112114 -0.0226713 -0.00211462 0.0134276 -0.0056027 -0.00421625 -0.00171484 0.0140677 -0.00470441 -0.00879385 -0.0235616 -0.000306881 0.0038342 -0.0156337 -0.00397873 -0.00216074 0.00869815 -0.000808075 -0.023792 0.0185746 0.00633252 -0.00531182 0.00702829 -0.00943727 -0.0144194 -0.00283231 0.0212581 -0.00503888 0.0132653 -0.000661565 0.00373782 -0.00745221 0.0152929
internal_weight=1208.72 1089.43 493.9 428.887 328.717 255.367 595.531 542.357 443.969 402.222 184.824 70.5432 119.289 54.3928 51.5465 73.3492 17.6733 98.3879 350.675 326.636 268.054 65.0129 214.191 144.906 41.9162 23.4324 69.285 58.5817 142.908 133.822 56.5423 74.1564 100.171 56.5834 23.8628 118.438 29.605 88.8326 64.5095 28.8569 53.1739 18.0301 43.0665 17.3206 24.323 18.9681 47.4717
internal_count=4910 4452 1649 1509 1201 980 2803 2666 2133 1971 765 215 458 208 203 221 63 533 1768 1686 1446 140 1174 862 116 65 312 240 649 629 268 455 308 181 88 578 155 423 284 145 137 100 166 81 139 74 195
is_linear=0
shrinkage=0.02


Tree=13
num_leaves=48
num_cat=0
split_feature=143 99 91 146 122 132 105 117 40 143 117 105 8 103 143 114 118 116 91 139 130 121 111 20 130 103 61 101 79 103 104 27 10 101 115 123 124 105 125 47 25 148 61 93 75 149 139
split_gain=130.092 88.4723 71.64 61.3095 43.1034 41.2874 51.3398 47.4593 41.3312 35.0752 34.7663 30.4012 27.3769 25.9377 31.5852 25.2143 22.4669 21.6665 21.1309 20.4707 20.2018 21.8343 20.8799 19.5295 19.182 19.8382 18.7755 20.2671 18.7596 18.4476 18.302 16.9666 16.9234 16.4255 15.6488 17.426 15.618 22.0574 15.3249 15.2696 14.1582 14.0201 13.9079 13.4698 15.0251 13.4294 12.1433
threshold=0.69592308998107921 0.30979889631271368 0.23155763745307925 0.18089612573385241 -0.19686272740364072 1.2556295990943911 0.48638693988323217 0.49234351515769964 0.57450300455093395 0.29261460900306707 0.079720132052898421 0.19293355196714404 -0.44139119982719416 0.60121858119964611 0.28079730272293096 -0.034236969426274293 0.2110797315835953 0.25118805468082434 -0.18442343920469281 -0.14532602578401563 0.41908286511898046 0.62062454223632824 0.50606378912925731 0.036359693855047233 0.1857465207576752 0.0058049708604812631 -0.16186114400625226 0.63438326120376598 -0.044946428388357156 0.22441327571868899 -0.16837209463119504 0.73685467243194591 -1.4951787590980528 0.31615775823593145 0.38993310928344732 -0.19998705387115476 0.18804483115673068 0.473030835390091 0.11660003662109376 -0.27739588916301722 0.55053937435150158 0.31266959011554724 0.071781899780035033 0.33147449791431433 -0.59880340099334706 0.23262448608875277 0.16636823117733004
decision_type=2 2 2 2 2 2 2 2 2 2 2 2 2 2 2 2 2 2 2 2 2 2 2 2 2 2 2 2 2 2 2 2 2 2 2 2 2 2 2 2 2 2 2 2 2 2 2
left_child=1 3 4 5 -3 6 7 20 -9 11 24 34 28 14 26 -16 -4 -17 -2 -14 21 22 42 -20 25 -6 27 -8 39 32 -13 -22 -18 38 35 -5 37 41 -25 -11 -24 -12 -1 44 -21 -31 -40
right_child=18 2 16 9 10 -7 13 8 -10 12 36 30 19 -15 15 17 29 -19 23 43 31 -23 40 33 -26 -27 -28 -29 -30 45 -32 -33 -34 -35 -36 -37 -38 -39 46 -41 -42 -43 -44 -45 -46 -47 -48
leaf_value=0.0030362586627849008 0.010821449579303628 0.02979759677188212 0.010863343077700675 -0.016243679003259348 0.01680906771162816 -0.027579257504459689 0.018316458982228005 -0.022536239797388165 0.025113330294620023 -0.031146309578708106 -0.026698750124964098 -0.0022739688997007153 0.021357777239691966 0.032249356770523527 -0.028669087495523132 -0.013582335007243129 -0.023359938946406346 0.0308076432717426 -0.031927784016390279 -0.036905604882570053 0.028073099067564805 -0.023908674798299261 0.020515237022568605 -0.018527015424407316 0.0065019221841251676 -0.018216563676308018 0.026018428784769693 -0.024122820530703561 0.02769567941569431 -0.0036239572787858778 0.024508701386145835 0.00059269823681048638 0.011837449287921287 -0.025988799460735561 -0.0048117202593270835 0.01613069881785794 -0.028164993482709122 0.012103090139570727 0.018433451495711201 0.015012178910573137 -0.010582826051133913 0.0069611255763791235 -0.012327635719051169 -0.018802344494773054 0.0044264248181962113 -0.03148722622630451 -0.016185046756290955
leaf_weight=58.052405055612326 8.37589069502428 8.703146940097211 88.714531322184484 7.3398436496499917 7.495270029641687 19.8711725352332 11.134434254374357 61.772983095608652 8.1925531253218633 4.6810988918878138 28.488213576376438 11.00666237529367 10.608112873509524 23.243555798195302 13.175525300204756 9.0172674050554651 6.7302350401878348 8.4671914391219598 46.731272237375379 3.9175579336006185 20.0120944455266 14.769506453536449 29.861846199841239 19.421405019704252 32.024119568988681 44.570440102601424 35.740329029038548 7.4787272587418547 23.081940766423941 14.705227156169714 128.08485007658601 16.42030487768352 27.916537059936672 30.451999352080747 27.821479300735518 64.79970264795702 73.666553408256732 10.527306330390273 12.195204729214312 7.2070034774951619 7.2020755263511083 5.9126648325473061 39.531252025160939 28.39776055701077 30.980289490544237 13.198881260119377 5.9868121453910126
leaf_count=311 23 20 471 57 32 39 43 191 20 15 133 30 47 50 29 34 24 28 128 23 68 48 133 69 218 223 95 14 64 74 406 118 118 84 135 366 202 33 36 34 38 43 226 95 166 37 40
internal_value=-0.000228826 0.00196354 -0.00611235 0.00596678 -0.0136318 0.000453354 0.00198971 -0.00289307 -0.0169285 0.0120471 -0.0155084 0.0163327 0.00262495 0.0135331 0.0083882 -0.00781257 0.00439019 0.0078839 -0.019713 -0.00426379 0.00238852 -0.000862684 0.00166575 -0.0219535 -0.00565082 -0.0131439 0.017544 0.00119193 0.0171971 -0.00477591 0.0223821 0.0157327 0.00494762 -0.0150714 0.00789836 0.0128139 -0.0224842 -0.0131266 -0.00618089 -0.0031339 0.0144394 -0.0208827 -0.00318056 -0.00858712 -0.000230969 -0.016872 0.00696661
internal_weight=1217.69 1094.52 362.653 731.87 211.388 383.943 364.072 255.815 69.9655 347.926 202.685 239.053 108.874 108.257 85.0135 30.66 151.265 17.4845 123.163 73.9037 185.849 149.417 134.648 114.787 84.0898 52.0657 54.3535 18.6132 34.97 62.5509 139.092 36.4324 34.6468 68.0554 99.961 72.1395 118.595 44.9282 37.6034 11.8881 37.0639 34.4009 97.5837 63.2956 34.8978 27.9041 18.182
internal_count=4931 4551 1628 2923 904 1485 1446 1153 211 1438 884 994 444 293 243 91 724 62 380 331 942 756 708 357 473 255 152 57 113 253 436 186 142 229 558 423 411 209 145 49 171 176 537 284 189 111 76
is_linear=0
shrinkage=0.02


Tree=14
num_leaves=48
num_cat=0
split_feature=142 87 118 96 128 138 138 98 142 111 64 126 118 5 15 132 96 21 126 95 119 130 90 27 95 111 66 128 15 85 125 42 66 88 112 106 94 45 39 16 86 23 117 75 44 102 20
split_gain=152.216 118.981 62.0327 50.2312 44.2105 42.0438 40.3409 34.2437 29.5746 31.729 33.5112 27.9828 26.0713 29.3463 25.3974 24.1266 21.3821 20.9976 20.8853 19.9134 19.5353 18.3244 22.9833 17.7727 17.3581 17.1603 18.9262 16.1736 16.0774 15.7173 14.9796 14.753 14.3099 23.1128 13.5125 13.9506 12.9148 12.6022 12.5735 12.566 12.4854 12.0844 12.0698 12.7636 13.0935 12.0044 11.8627
threshold=0.18992449343204501 0.54438292980194103 0.33611141145229345 0.92247819900512706 0.26804125308990484 0.3942162692546845 0.82912904024124157 0.23802018165588382 0.61673200130462658 0.23979607969522479 0.651614010334015 0.43360856175422674 0.20535771548748019 1.1551000475883486 -1.6630781292915342 0.30620156228542333 1.1702631115913393 -1.0215608477592466 0.28092573583126074 0.23046260327100757 0.38914074003696447 0.39234131574630743 0.20857766270637515 0.89621141552925121 0.25270217657089239 0.17008113116025927 1.350592374801636 -0.14081408083438871 -0.22517185658216474 6.442585867247658e-17 0.089107036590576186 1.1128167510032656 0.97757041454315197 0.19010296463966372 -0.14169871807098386 0.55335572361946117 -0.034369481727480881 -0.32375720143318171 -1.9519872665405271 -0.19829025864601132 0.20792002975940707 0.045589296147227294 -0.20037573575973508 0.29497051239013677 -0.14722976833581922 0.031637974083423621 0.12209644541144372
decision_type=2 2 2 2 2 2 2 2 2 2 2 2 2 2 2 2 2 2 2 2 2 2 2 2 2 2 2 2 2 2 2 2 2 2 2 2 2 2 2 2 2 2 2 2 2 2 2
left_child=1 2 21 6 7 -6 8 15 9 12 -11 16 29 17 -13 27 23 -14 -7 28 24 22 32 -4 -16 26 30 -3 -8 -2 46 36 33 42 -31 -36 -29 -19 -24 -12 -9 -41 -1 44 -44 -45 -15
right_child=3 4 11 -5 5 18 19 40 -10 10 39 14 13 25 20 -17 -18 37 -20 -21 -22 -23 38 -25 -26 -27 -28 31 -30 34 -32 -33 -34 -35 35 -37 -38 -39 -40 41 -42 -43 43 45 -46 -47 -48
leaf_value=-0.021176492942960819 0.023918124754446102 -0.022241359974257802 -0.027747636079016671 0.025274053352837746 0.022040429105579649 -0.025767135181446205 -0.015449358864668777 -0.033464176248565451 0.01827311511715685 0.018726298369057238 -0.026295289284002068 0.03338312183680784 0.012640703266395128 0.017054374706016374 0.017956890800588973 -0.018962416014461494 0.010177133799439207 -0.034537878396299009 0.017077775557516318 -0.027625877180456917 -0.032508557383442292 0.0089787308376152487 0.034022246991109013 -0.0096912208140438518 -0.017518085247539766 -0.022727061415986443 -0.019621219733973381 -0.0060726936960863254 0.02223693543093197 0.026216916272791751 0.027353841571971262 -0.010729828439597005 -0.027431228377471677 0.01258954841411815 0.0051790858632163933 -0.017028697294101586 0.022294984533048443 -0.012965030969999288 -0.0174964005748761 0.029384415401554165 -0.0034424444597309484 -0.012538702886942926 0.014042874210160847 0.0077633948618689762 -0.0044906713468893704 -0.026321996839424436 -0.023121125329897171
leaf_weight=17.0965315750218 19.758952930569649 5.701415514573454 134.08742309687659 61.37457478325814 84.328552806284279 12.62494255974889 10.096933573717253 16.150154029950503 86.195518898079172 96.316435310291126 9.4227862395346182 5.9451539739966384 10.473019588738678 6.6785593479871732 10.684507584199311 14.643393940292297 7.2450129911303511 14.079438897781072 7.0299388555577016 19.707085471600294 11.383733570575712 32.457423188141547 1.8877767920494068 26.339143224526197 11.299740326125173 6.6971479952335349 6.4175544995814553 7.6331469640135685 8.120991906616835 10.194412651937453 22.144175235182047 8.7258007703348976 8.7562878197059018 36.569227904081345 78.637578578083776 13.154494473128578 38.093708595493815 48.463089935714379 72.9147340360214 4.6703269733116013 8.5595694524236006 6.5114636979997158 21.657283225096762 5.6488132541999247 51.121732457075268 14.772123814560471 5.1691860584542155
leaf_count=98 65 31 326 139 210 45 45 28 363 381 42 12 40 29 46 51 15 60 28 68 31 218 3 155 33 17 26 27 49 62 72 31 44 175 492 80 133 262 297 26 31 29 130 28 285 76 21
internal_value=0.000367399 -0.00598912 -0.0115222 0.00823299 0.00678165 0.0158992 0.00606272 -0.00273924 0.00775204 0.00521947 0.013772 -0.0197123 0.00107895 -0.00552563 -0.00448706 0.00399548 -0.0232737 -0.0134668 -0.0103876 -0.0137162 -0.0113041 -0.00506723 -0.00705159 -0.0247933 -0.000229976 0.0067632 0.0116974 0.00961187 0.00131018 0.00760328 0.0176598 0.0129827 -0.00266278 -0.00117042 0.00442245 0.00197812 0.0175363 -0.0178612 -0.016161 -0.00932761 -0.0231328 0.00493526 -0.00574528 -0.00289403 0.00101659 -0.0168486 -0.000413699
internal_weight=1217.64 673.357 469.867 544.284 203.491 103.983 482.909 99.5072 444.984 358.789 116.921 206.985 241.868 120.122 39.3131 74.7975 167.672 73.0155 19.6549 37.925 33.368 262.882 230.425 160.427 21.9842 47.1066 40.4095 60.1541 18.2179 121.745 33.9919 54.4527 155.622 146.866 101.986 91.7921 45.7269 62.5425 74.8025 20.6046 24.7097 11.1818 110.296 93.2 72.779 20.4209 11.8477
internal_count=4955 2587 1972 2368 615 283 2229 332 2067 1704 478 618 1226 527 122 273 496 362 73 162 110 1354 1136 481 79 165 148 222 94 699 122 191 836 792 634 572 160 322 300 97 59 55 617 519 415 104 50
is_linear=0
shrinkage=0.02


Tree=15
num_leaves=48
num_cat=0
split_feature=96 119 105 111 99 5 96 145 92 133 98 140 39 139 126 48 22 144 93 132 105 10 0 126 121 18 75 86 70 26 26 145 71 51 40 79 0 72 33 25 131 102 62 39 10 99 108
split_gain=78.8241 82.8926 78.3679 60.7696 56.4151 48.0444 35.8 32.6071 29.1929 27.8968 24.7941 23.7728 22.0556 24.1281 23.9897 21.7543 21.7244 19.4691 18.8535 18.3836 18.2974 18.1749 18.0981 16.5396 19.7857 17.5202 17.188 17.3129 16.4937 16.338 16.24 15.5917 14.4839 14.0308 14.6809 16.0807 13.2238 13.0385 13.0332 13.0121 12.9328 12.5213 12.8339 17.4567 12.4687 12.426 12.1937
threshold=0.92247819900512706 0.81545284390449535 0.76450657844543468 0.90980464220047008 0.49978442490100866 -0.13120429217815396 0.26359185576438909 0.72424161434173595 -0.026947091333568093 0.39588512480258947 0.42655454576015478 0.33923585712909704 -0.25712610781192774 0.17165313661098483 0.44827423989772802 0.40842977166175848 0.12622873485088351 0.37428495287895208 0.042615761980414398 0.35933688282966619 0.70356884598732006 -0.25983971357345576 2.0228394269943242 0.77816009521484386 0.10512990877032281 -0.56095537543296803 -0.50269088149070729 0.63100045919418346 1.1042402386665346 -0.090712223201990114 1.6442775726318362 0.4762879759073258 0.13686053454875949 0.033262111246585853 0.31322731077671057 0.49592685699462896 -1.0856008529663084 1.5932663083076479 -0.14361372590065 -1.0659201741218565 0.29537342488765722 0.23762430250644687 -0.49594293534755701 0.73028999567031871 0.77990221977233898 -0.029771486297249791 -0.03211019188165664
decision_type=2 2 2 2 2 2 2 2 2 2 2 2 2 2 2 2 2 2 2 2 2 2 2 2 2 2 2 2 2 2 2 2 2 2 2 2 2 2 2 2 2 2 2 2 2 2 2
left_child=1 2 3 4 6 21 7 12 -4 -2 11 -3 13 18 28 20 -11 -15 -1 36 23 -6 40 24 41 39 -27 32 33 -30 -10 -16 -28 38 35 -35 -5 -23 -14 -26 45 42 43 -8 -34 -20 -36
right_child=9 10 8 19 5 -7 15 -9 30 16 -12 -13 14 17 31 -17 -18 -19 22 -21 -22 37 -24 -25 25 26 27 -29 29 -31 -32 -33 44 34 46 -37 -38 -39 -40 -41 -42 -43 -44 -45 -46 -47 -48
leaf_value=0.013555068356210478 0.022246800787130275 -0.025509331251021901 -0.017346279019383314 -0.0092582617819787563 0.013167609041613956 -0.023273426237982019 0.012617432391399383 -0.030313063777149565 0.022364774219673814 -0.021766243646394418 -0.028865935306820845 0.0093397691501141984 0.009011494820582196 -0.023547107346050571 0.013047817681220066 0.018262794172007921 0.01935118026516601 0.0007329858910441778 0.027034091584825507 -0.008112665614203372 -0.029590295114493261 -0.019310818139088182 0.023064289467320684 0.025784377034259051 -0.0098592973707565239 0.024968612907310755 -0.0056677001856979773 0.0082260844180798501 0.026710645826628666 -0.0093074061247055678 -0.0051033030982760817 -0.016990605442307124 -0.033253118520498726 -0.0014827750903206147 0.027781201205417019 -0.030319752159306185 0.021862881307915805 0.0069569161040371431 -0.014181143509262986 0.018002026725167299 -0.021317614269324374 -0.0033117858726011834 0.023120513693387558 -0.035218472328358688 -0.0019394275757812199 -0.0080134629575873383 0.00093003684848135166
leaf_weight=22.928472379921004 80.820516806095839 14.226453987881543 9.2857912648469192 5.9227646104991427 24.225605587940663 93.241146711166948 13.447157308459284 18.300175670185126 87.089061933656922 11.661934997886421 52.949531319784001 17.246692292857915 11.062351493630556 54.425480589037761 66.924538125284016 42.81484505161643 9.0971596464514715 17.330685832072049 4.8405681345611837 11.582053904654456 6.7929487042129031 20.604198963847011 6.7650566808879367 12.603876831009982 9.6325352988205868 5.6520789591595522 27.439371475717053 14.631140754092483 13.533335923915731 7.9223843819927415 9.4710677862167341 7.6367189479060462 22.132012728601698 70.477895457908744 11.635536251822488 8.6537303598597628 61.038493925705552 11.818445242126471 73.980808636988513 21.560301777441055 27.041447685565799 18.966617221245542 32.571364987641573 3.8904774643015108 6.6977404356002799 23.294677169527858 16.266272609122097
leaf_count=111 194 43 33 14 153 298 74 64 221 25 95 55 76 254 394 159 17 95 21 33 23 123 38 49 68 24 141 61 49 40 35 27 64 409 36 30 183 93 400 78 98 99 173 13 21 116 69
internal_value=6.97085e-05 -0.00145903 9.31493e-05 -0.00176151 -0.00331501 -0.0144514 -0.000934413 -0.00417961 0.0163964 0.0169359 -0.0205098 -0.00639643 -0.00309868 -0.00913811 0.000182289 0.00535235 -0.00369629 -0.0176726 -0.00190444 0.0150637 0.00252337 5.94371e-05 -0.00764941 0.00368901 0.00209975 -0.00324506 -0.0083988 -0.0110886 -0.00322472 0.013374 0.019659 0.00994849 -0.0161315 -0.00508707 -0.000258294 -0.00466613 0.0190904 -0.00970915 -0.011149 0.00936427 -0.0114507 0.0104717 0.0157278 0.00175538 -0.0260289 -0.00191092 0.0121929
internal_weight=1222.13 1120.55 1036.13 930.285 851.742 149.889 701.853 463.02 105.846 101.58 84.4227 31.4731 444.72 156.626 288.094 238.832 20.7591 71.7562 84.8702 78.5433 196.018 56.6482 61.9417 189.225 176.621 107.745 76.5523 70.9003 213.532 21.4557 96.5601 74.5613 56.2691 192.077 107.033 79.1316 66.9613 32.4226 85.0432 31.1928 55.1767 68.8756 49.909 17.3376 28.8298 28.1352 27.9018
internal_count=4989 4753 4560 4271 4041 667 3374 2327 289 236 193 98 2263 733 1530 1047 42 349 384 230 888 369 273 865 816 457 311 287 1109 89 256 421 226 1020 544 439 197 216 476 146 235 359 260 87 85 137 105
is_linear=0
shrinkage=0.02


Tree=16
num_leaves=48
num_cat=0
split_feature=143 138 118 128 87 142 140 142 138 132 134 142 111 131 139 87 142 133 132 130 145 91 4 4 136 105 118 96 103 103 45 65 86 103 8 105 98 91 106 59 118 121 143 31 64 87 108
split_gain=123.978 92.9753 52.5754 56.083 41.4465 44.2389 37.086 35.5263 32.7353 30.9304 29.2032 29.3322 27.1574 24.9818 24.8981 23.1437 22.7295 21.2203 20.4683 17.9504 17.346 16.9775 16.5 16.1158 15.718 15.2812 17.2006 14.9808 14.8909 14.9923 14.8128 14.4405 14.1771 16.3973 16.1827 14.8379 13.7362 13.6163 15.5729 15.102 13.4432 13.0512 12.5796 17.8547 12.3417 16.7984 15.5254
threshold=0.23154209554195407 0.45261116325855261 0.62804710865020763 0.1082495078444481 0.24672468751668933 0.49036847054958349 0.32904624938964849 0.42822538316249853 0.18467246741056445 0.91448935866355907 0.21590140461921695 0.098924402147531523 0.63502097129821788 0.85026267170906078 0.36075806617736822 0.79260876774787914 0.14570725709199908 0.11749159172177316 0.75313746929168712 0.053370693698525436 0.11747880280017854 0.25607380270957952 -0.28692230582237238 0.17342270165681842 -0.13553705811500547 0.5758352279663087 0.22681260108947757 -0.029185167513787743 -0.063222818076610551 0.3084853738546372 0.35834494233131414 0.98911026120185863 0.16871633380651477 0.051594359800219543 0.53883451223373424 0.40240362286567694 0.14357881993055346 0.046454327180981643 0.0062453649006783971 0.60356956720352184 0.20231655240058902 0.03234908543527127 0.36329087615013128 -0.24006783962249753 -0.36494816839694971 0.077543042600154891 0.21417173743247989
decision_type=2 2 2 2 2 2 2 2 2 2 2 2 2 2 2 2 2 2 2 2 2 2 2 2 2 2 2 2 2 2 2 2 2 2 2 2 2 2 2 2 2 2 2 2 2 2 2
left_child=1 4 3 13 5 9 19 15 14 21 11 17 28 16 37 24 31 -6 -9 40 36 25 -19 -16 -4 26 -1 30 -10 41 -13 -2 33 -21 -34 -35 -18 38 -5 -39 -3 -30 -31 -44 -8 -46 -47
right_child=2 6 7 8 10 -7 44 18 12 -11 -12 27 -14 -15 23 -17 20 22 -20 32 -22 -23 -24 -25 -26 -27 -28 -29 29 42 -32 -33 34 35 -36 -37 -38 39 -40 -41 -42 -43 43 -45 45 46 -48
leaf_value=0.0031568353544830976 -0.020197095919295489 -0.0097898573213124063 -0.0023558050545628316 -0.017300888248915604 0.017066578708370802 0.020498958844376865 0.020685693926964382 0.023934660664891062 0.015487582518608125 -0.022206932441465592 0.022438218226946596 -0.031765935038057018 0.017012243560095026 0.025362403331319516 0.0093897607951990477 0.0044886526470516649 -0.0048103683980508368 0.018135377259326284 -0.019019463320964637 0.0091397672935942652 -0.013917519901794373 0.012634918960580679 -0.021147548562209989 -0.020536753394211106 -0.028746426480089914 0.018920735547381655 -0.012488540616784371 0.025028197161537997 -0.0012659649267026405 -0.018328259305324973 0.018898454043294721 0.0016704764995998736 0.01171492888634589 -0.022895835762528044 -0.017768563118391242 0.014450575065025903 0.018675636838687282 0.02192552951134347 0.016485036388897763 -0.0060823022734661008 -0.030732443996185008 -0.027750848812445814 -0.019792908064285467 0.026165300483006294 -0.033986212124578162 0.024681906649194271 -0.013720496055202931
leaf_weight=75.371683935867622 104.91860081793857 23.715302794706076 10.230149678885935 10.027492981404068 12.610231849364935 60.304272070294246 21.702557039447129 11.435860499739649 7.686081998050212 20.522686536423862 143.42882626387291 4.0989679386839253 17.393284456338733 7.2801392870023838 13.766707416158171 11.178930174559353 23.070165824145079 5.1607600310817388 7.1638454645872107 10.882594760507343 35.097513092798181 57.97264392930083 23.453987039159983 14.924373277463017 83.143494571559131 14.67897076718509 44.705080488347448 34.646916684927419 9.92674427301972 10.572008882882075 5.1401589657180011 13.547407535370438 27.165810252772644 35.506153145805001 10.186996268574147 4.7654772112146011 17.400279447203502 69.730517406947911 11.844289618777109 8.5739816408604366 25.89631335157901 30.744679018040188 5.1190525759011498 9.6669580675661546 4.6777501124888685 9.9874516380950826 7.1773604955524197
leaf_count=448 407 130 33 28 47 254 71 34 32 40 400 22 61 26 86 24 119 32 26 63 198 329 73 54 196 42 262 124 45 48 22 64 162 169 56 15 79 218 53 42 70 132 19 44 21 40 28
internal_value=0.000532961 0.00620362 -0.00658683 -0.00322271 0.0106402 0.00538113 -0.00605254 -0.018081 0.00375441 0.00109754 0.0169282 0.00762327 -0.00541245 -0.0108506 0.0102427 -0.0226125 -0.0122207 -0.00446968 0.00733023 -0.0111291 -0.00362993 0.00358942 -0.0140086 -0.00615111 -0.0258685 -0.000297827 -0.00266245 0.0189979 -0.0107251 -0.0138009 -0.00352131 -0.0176883 -0.00570983 -0.0125494 0.00363434 -0.0184393 0.00527335 0.0149487 0.000945553 0.0188441 -0.0207616 -0.0213207 -0.0016824 0.0101737 0.0100211 -0.000552601 0.00857288
internal_weight=1228.2 683.759 544.443 421.29 502.095 273.555 181.664 123.152 219.976 213.251 228.54 85.111 91.1088 201.314 128.867 104.553 194.034 41.225 18.5997 138.119 75.568 192.728 28.6147 28.6911 93.3736 134.756 120.077 43.886 73.7155 66.0294 9.23913 118.466 88.507 51.1542 37.3528 40.2716 40.4704 100.176 21.8718 78.3045 49.6116 40.6714 25.358 14.786 43.5451 21.8426 17.1648
internal_count=4988 2920 2068 1755 2095 1375 825 313 862 1121 720 320 381 893 481 253 867 152 60 665 396 1081 105 140 229 752 710 168 320 288 44 471 465 247 218 184 198 341 81 260 200 177 111 63 160 89 68
is_linear=0
shrinkage=0.02


Tree=17
num_leaves=48
num_cat=0
split_feature=142 111 118 105 96 128 147 91 8 106 91 90 130 121 130 149 142 87 65 28 128 111 90 46 118 105 124 82 96 52 91 45 137 137 129 130 11 71 129 120 5 95 94 68 128 60 49
split_gain=130.947 81.9074 87.515 63.0728 37.9568 40.4803 33.2665 40.129 33.1713 31.5884 30.8987 27.6449 24.7036 24.5749 22.8284 20.5252 20.4951 27.7942 24.2843 23.2001 21.8844 17.3804 16.6034 16.1008 15.8839 18.8698 15.8483 15.8098 15.8026 14.9045 14.9698 14.7763 16.1327 14.4501 14.183 16.3759 16.2646 13.9556 13.8059 13.7302 13.6978 13.6934 12.9987 12.8877 12.5879 12.4231 12.1835
